digraph Tree {
node [shape=box] ;
0 [label="X[710] <= 0.5\ngini = 0.899\nsamples = 30000\nvalue = [345, 600, 1147, 1990, 572, 1969, 872, 2260, 496\n5952, 404, 1084, 626, 4863, 614, 384, 3285, 753\n1159, 625]"] ;
1 [label="X[825] <= 0.5\ngini = 0.906\nsamples = 28583\nvalue = [336, 595, 1119, 1987, 571, 1917, 849, 2259, 493\n4765, 402, 1081, 626, 4837, 611, 384, 3220, 749\n1158, 624]"] ;
0 -> 1 [labeldistance=2.5, labelangle=45, headlabel="True"] ;
2 [label="X[1313] <= 0.5\ngini = 0.896\nsamples = 26116\nvalue = [336, 594, 1110, 987, 386, 1912, 846, 2245, 488, 4753\n347, 651, 303, 4805, 609, 382, 3207, 748, 897, 510]"] ;
1 -> 2 ;
3 [label="X[1423] <= 0.5\ngini = 0.894\nsamples = 25424\nvalue = [335, 592, 1110, 987, 386, 1912, 846, 1601, 488, 4752\n346, 617, 303, 4805, 603, 382, 3205, 748, 896, 510]"] ;
2 -> 3 ;
4 [label="X[6584] <= 0.5\ngini = 0.898\nsamples = 24699\nvalue = [334, 592, 1109, 986, 386, 1912, 846, 1601, 488, 4751\n346, 616, 302, 4090, 603, 382, 3204, 746, 895, 510]"] ;
3 -> 4 ;
5 [label="X[4821] <= 0.5\ngini = 0.901\nsamples = 24088\nvalue = [334, 592, 1107, 982, 384, 1912, 845, 1601, 487, 4745\n345, 616, 302, 3507, 603, 382, 3200, 743, 891, 510]"] ;
4 -> 5 ;
6 [label="X[3935] <= 0.5\ngini = 0.902\nsamples = 23447\nvalue = [326, 592, 1104, 978, 381, 1909, 840, 1600, 485, 4730\n341, 586, 302, 2977, 603, 381, 3193, 731, 884, 504]"] ;
5 -> 6 ;
7 [label="X[4053] <= 0.5\ngini = 0.897\nsamples = 22652\nvalue = [324, 592, 1104, 945, 310, 1909, 840, 1594, 485, 4729\n341, 581, 267, 2976, 603, 381, 3193, 731, 499, 248]"] ;
6 -> 7 ;
8 [label="X[74] <= 0.5\ngini = 0.897\nsamples = 22004\nvalue = [322, 571, 1086, 944, 310, 1902, 839, 1582, 431, 4706\n341, 581, 266, 2970, 603, 372, 2702, 729, 499, 248]"] ;
7 -> 8 ;
9 [label="X[6278] <= 0.5\ngini = 0.894\nsamples = 20610\nvalue = [310, 568, 1056, 942, 305, 1887, 808, 1265, 430, 4683\n324, 575, 266, 2394, 343, 370, 2669, 687, 481, 247]"] ;
8 -> 9 ;
10 [label="X[4805] <= 0.5\ngini = 0.905\nsamples = 16405\nvalue = [231, 532, 850, 901, 288, 1526, 463, 1129, 395, 2891\n290, 552, 254, 2001, 197, 333, 2477, 421, 439, 235]"] ;
9 -> 10 ;
11 [label="X[3085] <= 0.5\ngini = 0.909\nsamples = 14764\nvalue = [225, 522, 821, 896, 285, 1356, 315, 1110, 386, 2030\n285, 542, 251, 1935, 145, 328, 2418, 247, 433, 234]"] ;
10 -> 11 ;
12 [label="X[186] <= 0.5\ngini = 0.91\nsamples = 14507\nvalue = [223, 522, 820, 896, 285, 1356, 315, 1108, 386, 2026\n284, 542, 251, 1692, 145, 328, 2415, 246, 433, 234]"] ;
11 -> 12 ;
13 [label="X[3087] <= 0.5\ngini = 0.909\nsamples = 14168\nvalue = [223, 521, 819, 894, 285, 1355, 315, 854, 386, 2026\n281, 528, 251, 1659, 140, 328, 2405, 243, 422, 233]"] ;
12 -> 13 ;
14 [label="X[558] <= 0.5\ngini = 0.907\nsamples = 13752\nvalue = [223, 520, 818, 679, 279, 1355, 315, 850, 385, 2026\n280, 473, 168, 1657, 140, 328, 2404, 243, 393, 216]"] ;
13 -> 14 ;
15 [label="X[4564] <= 0.5\ngini = 0.907\nsamples = 13320\nvalue = [215, 520, 795, 673, 275, 1355, 314, 831, 383, 2023\n272, 471, 166, 1385, 140, 327, 2360, 238, 370, 207]"] ;
14 -> 15 ;
16 [label="X[1737] <= 0.5\ngini = 0.907\nsamples = 13141\nvalue = [215, 520, 657, 673, 275, 1354, 314, 831, 383, 2023\n272, 471, 166, 1385, 140, 327, 2320, 238, 370, 207]"] ;
15 -> 16 ;
17 [label="X[4312] <= 0.5\ngini = 0.905\nsamples = 13015\nvalue = [215, 520, 657, 668, 275, 1354, 314, 831, 383, 2023\n272, 362, 157, 1385, 140, 327, 2320, 238, 367, 207]"] ;
16 -> 17 ;
18 [label="X[954] <= 0.5\ngini = 0.905\nsamples = 12882\nvalue = [215, 520, 547, 668, 275, 1354, 314, 831, 383, 2022\n271, 362, 157, 1384, 140, 327, 2300, 238, 367, 207]"] ;
17 -> 18 ;
19 [label="X[2324] <= 0.5\ngini = 0.904\nsamples = 12682\nvalue = [213, 520, 547, 664, 267, 1354, 314, 703, 383, 2022\n270, 357, 154, 1341, 140, 327, 2298, 238, 363, 207]"] ;
18 -> 19 ;
20 [label="X[1771] <= 0.5\ngini = 0.909\nsamples = 10464\nvalue = [187, 371, 431, 646, 235, 1059, 273, 628, 245, 1694\n230, 325, 153, 1244, 117, 250, 1596, 222, 354, 204]"] ;
19 -> 20 ;
21 [label="X[4201] <= 0.5\ngini = 0.911\nsamples = 9117\nvalue = [176, 259, 377, 634, 229, 687, 239, 610, 200, 1491\n221, 315, 152, 1179, 101, 186, 1298, 211, 351, 201]"] ;
20 -> 21 ;
22 [label="X[3979] <= 0.5\ngini = 0.91\nsamples = 8768\nvalue = [172, 248, 373, 463, 215, 665, 238, 607, 196, 1470\n214, 299, 149, 1166, 101, 183, 1273, 202, 340, 194]"] ;
21 -> 22 ;
23 [label="X[4717] <= 0.5\ngini = 0.911\nsamples = 8669\nvalue = [172, 248, 371, 463, 215, 664, 238, 607, 195, 1378\n214, 299, 149, 1166, 101, 182, 1271, 202, 340, 194]"] ;
22 -> 23 ;
24 [label="X[1093] <= 0.5\ngini = 0.912\nsamples = 8494\nvalue = [170, 248, 367, 463, 215, 664, 235, 574, 195, 1377\n212, 297, 149, 1053, 90, 181, 1268, 202, 340, 194]"] ;
23 -> 24 ;
25 [label="X[1118] <= 0.5\ngini = 0.911\nsamples = 8412\nvalue = [170, 247, 367, 463, 215, 664, 235, 506, 195, 1377\n211, 287, 149, 1053, 90, 181, 1267, 202, 339, 194]"] ;
24 -> 25 ;
26 [label="X[2187] <= 0.5\ngini = 0.91\nsamples = 8256\nvalue = [169, 244, 367, 461, 213, 662, 234, 421, 195, 1374\n181, 286, 149, 1053, 89, 181, 1263, 201, 323, 190]"] ;
25 -> 26 ;
27 [label="X[4617] <= 0.5\ngini = 0.91\nsamples = 8195\nvalue = [169, 244, 367, 461, 213, 662, 234, 421, 195, 1374\n181, 286, 149, 992, 89, 181, 1263, 201, 323, 190]"] ;
26 -> 27 ;
28 [label="X[3132] <= 0.5\ngini = 0.912\nsamples = 8096\nvalue = [169, 244, 367, 461, 212, 662, 232, 421, 195, 1291\n181, 286, 149, 982, 89, 180, 1261, 201, 323, 190]"] ;
27 -> 28 ;
29 [label="X[5222] <= 0.5\ngini = 0.911\nsamples = 8050\nvalue = [123, 244, 367, 461, 212, 662, 232, 421, 195, 1291\n181, 286, 149, 982, 89, 180, 1261, 201, 323, 190]"] ;
28 -> 29 ;
30 [label="X[4347] <= 0.5\ngini = 0.911\nsamples = 7994\nvalue = [123, 244, 316, 461, 212, 662, 232, 421, 195, 1291\n181, 286, 149, 982, 89, 180, 1257, 200, 323, 190]"] ;
29 -> 30 ;
31 [label="X[3476] <= 0.5\ngini = 0.91\nsamples = 7941\nvalue = [123, 244, 316, 412, 211, 662, 232, 421, 195, 1291\n180, 286, 149, 982, 89, 180, 1257, 200, 323, 188]"] ;
30 -> 31 ;
32 [label="X[3854] <= 0.5\ngini = 0.909\nsamples = 7885\nvalue = [123, 244, 316, 412, 211, 662, 232, 421, 195, 1291\n180, 286, 148, 982, 89, 180, 1257, 200, 275, 181]"] ;
31 -> 32 ;
33 [label="X[3779] <= 0.5\ngini = 0.908\nsamples = 7810\nvalue = [123, 244, 316, 411, 211, 662, 232, 421, 195, 1291\n180, 286, 144, 982, 89, 180, 1257, 200, 224, 162]"] ;
32 -> 33 ;
34 [label="X[2839] <= 0.5\ngini = 0.908\nsamples = 7743\nvalue = [123, 244, 316, 411, 211, 661, 180, 420, 195, 1280\n180, 286, 144, 980, 89, 180, 1257, 200, 224, 162]"] ;
33 -> 34 ;
35 [label="X[3260] <= 0.5\ngini = 0.908\nsamples = 7642\nvalue = [121, 243, 314, 411, 211, 660, 180, 416, 194, 1278\n178, 284, 143, 907, 89, 179, 1250, 199, 223, 162]"] ;
34 -> 35 ;
36 [label="X[6711] <= 0.5\ngini = 0.908\nsamples = 7595\nvalue = [121, 243, 314, 411, 211, 660, 180, 416, 194, 1278\n178, 284, 143, 860, 89, 179, 1250, 199, 223, 162]"] ;
35 -> 36 ;
37 [label="X[5258] <= 0.5\ngini = 0.909\nsamples = 7541\nvalue = [121, 243, 314, 411, 211, 659, 179, 416, 194, 1226\n178, 284, 143, 860, 89, 179, 1250, 199, 223, 162]"] ;
36 -> 37 ;
38 [label="X[4896] <= 0.5\ngini = 0.91\nsamples = 7487\nvalue = [121, 243, 314, 411, 211, 658, 179, 416, 194, 1225\n178, 284, 143, 811, 89, 179, 1248, 198, 223, 162]"] ;
37 -> 38 ;
39 [label="X[3916] <= 0.5\ngini = 0.907\nsamples = 7326\nvalue = [121, 243, 314, 374, 211, 657, 179, 413, 194, 1223\n178, 227, 126, 808, 89, 179, 1245, 196, 209, 140]"] ;
38 -> 39 ;
40 [label="X[1608] <= 0.5\ngini = 0.909\nsamples = 7263\nvalue = [121, 243, 313, 374, 211, 657, 179, 413, 192, 1220\n178, 227, 126, 807, 89, 179, 1189, 196, 209, 140]"] ;
39 -> 40 ;
41 [label="X[2118] <= 0.5\ngini = 0.91\nsamples = 7191\nvalue = [119, 243, 312, 374, 211, 656, 179, 413, 192, 1160\n178, 226, 126, 802, 89, 178, 1188, 196, 209, 140]"] ;
40 -> 41 ;
42 [label="X[4781] <= 0.5\ngini = 0.911\nsamples = 7141\nvalue = [119, 243, 310, 374, 211, 656, 179, 413, 192, 1160\n178, 226, 126, 802, 89, 178, 1141, 195, 209, 140]"] ;
41 -> 42 ;
43 [label="X[3847] <= 0.5\ngini = 0.912\nsamples = 7081\nvalue = [119, 242, 310, 373, 211, 651, 179, 412, 192, 1108\n178, 226, 126, 802, 89, 178, 1141, 195, 209, 140]"] ;
42 -> 43 ;
44 [label="X[1078] <= 0.5\ngini = 0.909\nsamples = 6914\nvalue = [101, 242, 310, 370, 184, 651, 179, 388, 192, 1107\n154, 221, 126, 799, 88, 178, 1140, 195, 160, 129]"] ;
43 -> 44 ;
45 [label="X[6402] <= 0.5\ngini = 0.909\nsamples = 6877\nvalue = [101, 242, 310, 370, 184, 651, 179, 388, 192, 1107\n154, 221, 126, 762, 88, 178, 1140, 195, 160, 129]"] ;
44 -> 45 ;
46 [label="X[3377] <= 0.5\ngini = 0.909\nsamples = 6733\nvalue = [101, 242, 300, 368, 184, 651, 179, 354, 192, 1102\n154, 220, 125, 691, 87, 178, 1128, 191, 158, 128]"] ;
45 -> 46 ;
47 [label="X[434] <= 0.5\ngini = 0.908\nsamples = 6674\nvalue = [101, 242, 300, 326, 179, 651, 179, 354, 192, 1102\n154, 220, 125, 691, 87, 178, 1127, 191, 149, 126]"] ;
46 -> 47 ;
48 [label="X[990] <= 0.5\ngini = 0.909\nsamples = 6541\nvalue = [100, 236, 299, 326, 179, 578, 177, 353, 190, 1082\n154, 217, 123, 683, 87, 174, 1122, 186, 149, 126]"] ;
47 -> 48 ;
49 [label="X[2248] <= 0.5\ngini = 0.908\nsamples = 6491\nvalue = [100, 236, 299, 326, 179, 578, 177, 314, 189, 1079\n154, 216, 123, 683, 84, 174, 1119, 186, 149, 126]"] ;
48 -> 49 ;
50 [label="X[2734] <= 0.5\ngini = 0.908\nsamples = 6441\nvalue = [94, 236, 299, 326, 179, 578, 177, 314, 189, 1078\n153, 216, 122, 643, 84, 174, 1119, 185, 149, 126]"] ;
49 -> 50 ;
51 [label="X[4037] <= 0.5\ngini = 0.909\nsamples = 6346\nvalue = [94, 235, 289, 326, 179, 571, 175, 314, 189, 1014\n153, 216, 122, 642, 84, 173, 1111, 184, 149, 126]"] ;
50 -> 51 ;
52 [label="X[3301] <= 0.5\ngini = 0.909\nsamples = 6316\nvalue = [94, 235, 289, 326, 179, 571, 147, 314, 189, 1013\n153, 216, 122, 641, 84, 173, 1111, 184, 149, 126]"] ;
51 -> 52 ;
53 [label="X[2257] <= 0.5\ngini = 0.906\nsamples = 6117\nvalue = [93, 235, 275, 276, 177, 568, 146, 312, 189, 1009\n127, 187, 96, 633, 84, 170, 1102, 182, 140, 116]"] ;
52 -> 53 ;
54 [label="X[423] <= 0.5\ngini = 0.905\nsamples = 5988\nvalue = [91, 235, 274, 269, 177, 567, 145, 295, 188, 1002\n126, 187, 96, 573, 76, 170, 1100, 179, 126, 112]"] ;
53 -> 54 ;
55 [label="X[456] <= 0.5\ngini = 0.906\nsamples = 5953\nvalue = [91, 235, 274, 269, 177, 567, 145, 295, 188, 968\n126, 187, 96, 573, 76, 169, 1100, 179, 126, 112]"] ;
54 -> 55 ;
56 [label="X[2454] <= 0.5\ngini = 0.905\nsamples = 5918\nvalue = [91, 235, 274, 269, 177, 566, 145, 293, 187, 968\n125, 186, 96, 573, 76, 141, 1099, 179, 126, 112]"] ;
55 -> 56 ;
57 [label="X[2946] <= 0.5\ngini = 0.906\nsamples = 5885\nvalue = [91, 235, 274, 269, 177, 566, 144, 293, 187, 937\n125, 186, 96, 572, 76, 141, 1099, 179, 126, 112]"] ;
56 -> 57 ;
58 [label="X[24] <= 0.5\ngini = 0.906\nsamples = 5849\nvalue = [91, 235, 274, 269, 177, 563, 144, 293, 187, 905\n125, 186, 96, 572, 76, 141, 1099, 178, 126, 112]"] ;
57 -> 58 ;
59 [label="X[5886] <= 0.5\ngini = 0.906\nsamples = 5812\nvalue = [91, 235, 274, 267, 177, 563, 143, 265, 187, 905\n125, 186, 96, 570, 76, 141, 1097, 178, 124, 112]"] ;
58 -> 59 ;
60 [label="X[4425] <= 0.5\ngini = 0.906\nsamples = 5789\nvalue = [91, 235, 274, 267, 177, 563, 143, 265, 187, 905\n125, 186, 96, 547, 76, 141, 1097, 178, 124, 112]"] ;
59 -> 60 ;
61 [label="X[529] <= 0.5\ngini = 0.908\nsamples = 5729\nvalue = [91, 235, 270, 267, 177, 560, 143, 265, 187, 898\n125, 186, 96, 546, 76, 141, 1052, 178, 124, 112]"] ;
60 -> 61 ;
62 [label="X[4539] <= 0.5\ngini = 0.909\nsamples = 5694\nvalue = [91, 235, 268, 267, 177, 559, 143, 265, 187, 898\n125, 186, 96, 546, 76, 141, 1020, 178, 124, 112]"] ;
61 -> 62 ;
63 [label="X[2484] <= 0.5\ngini = 0.908\nsamples = 5654\nvalue = [91, 235, 239, 267, 177, 556, 143, 265, 185, 897\n125, 186, 96, 545, 76, 140, 1017, 178, 124, 112]"] ;
62 -> 63 ;
64 [label="X[363] <= 0.5\ngini = 0.908\nsamples = 5625\nvalue = [90, 234, 239, 267, 177, 555, 143, 241, 185, 897\n125, 185, 96, 545, 76, 140, 1016, 178, 124, 112]"] ;
63 -> 64 ;
65 [label="X[3066] <= 0.5\ngini = 0.908\nsamples = 5597\nvalue = [90, 234, 239, 267, 177, 555, 143, 241, 185, 897\n124, 185, 96, 520, 76, 140, 1014, 178, 124, 112]"] ;
64 -> 65 ;
66 [label="X[3011] <= 0.5\ngini = 0.909\nsamples = 5150\nvalue = [81, 176, 225, 255, 173, 519, 139, 218, 164, 868\n115, 174, 93, 481, 76, 126, 870, 164, 123, 110]"] ;
65 -> 66 ;
67 [label="X[4182] <= 0.5\ngini = 0.905\nsamples = 4873\nvalue = [81, 176, 195, 207, 162, 511, 137, 217, 162, 856\n101, 146, 57, 458, 76, 118, 838, 161, 114, 100]"] ;
66 -> 67 ;
68 [label="X[4331] <= 0.5\ngini = 0.907\nsamples = 4803\nvalue = [81, 176, 194, 207, 162, 507, 137, 217, 162, 810\n101, 146, 57, 455, 76, 118, 834, 157, 109, 97]"] ;
67 -> 68 ;
69 [label="X[3469] <= 0.5\ngini = 0.908\nsamples = 4761\nvalue = [81, 176, 194, 206, 159, 506, 136, 217, 162, 809\n101, 145, 57, 452, 76, 118, 803, 157, 109, 97]"] ;
68 -> 69 ;
70 [label="X[3339] <= 0.5\ngini = 0.908\nsamples = 4731\nvalue = [81, 172, 194, 206, 159, 506, 136, 217, 162, 809\n101, 145, 57, 451, 76, 118, 778, 157, 109, 97]"] ;
69 -> 70 ;
71 [label="X[849] <= 0.5\ngini = 0.907\nsamples = 4613\nvalue = [81, 166, 156, 206, 159, 491, 132, 217, 155, 797\n82, 145, 57, 450, 76, 118, 762, 157, 109, 97]"] ;
70 -> 71 ;
72 [label="X[5308] <= 0.5\ngini = 0.908\nsamples = 4590\nvalue = [81, 166, 154, 206, 159, 491, 132, 217, 155, 776\n82, 145, 57, 450, 76, 118, 762, 157, 109, 97]"] ;
71 -> 72 ;
73 [label="X[3730] <= 0.5\ngini = 0.901\nsamples = 3909\nvalue = [68, 141, 106, 183, 97, 432, 119, 174, 112, 724, 64\n136, 44, 375, 58, 79, 671, 135, 100, 91]"] ;
72 -> 73 ;
74 [label="X[2865] <= 0.5\ngini = 0.901\nsamples = 3896\nvalue = [68, 141, 106, 183, 97, 432, 119, 174, 112, 724, 64\n123, 44, 375, 58, 79, 671, 135, 100, 91]"] ;
73 -> 74 ;
75 [label="X[271] <= 0.5\ngini = 0.901\nsamples = 3882\nvalue = [68, 141, 106, 183, 97, 432, 119, 174, 112, 724, 64\n123, 44, 361, 58, 79, 671, 135, 100, 91]"] ;
74 -> 75 ;
76 [label="X[2006] <= 0.5\ngini = 0.902\nsamples = 3853\nvalue = [68, 141, 106, 182, 97, 431, 119, 173, 112, 723, 64\n122, 44, 361, 57, 79, 648, 135, 100, 91]"] ;
75 -> 76 ;
77 [label="X[1437] <= 0.5\ngini = 0.901\nsamples = 3841\nvalue = [68, 141, 106, 182, 97, 431, 119, 173, 100, 723, 64\n122, 44, 361, 57, 79, 648, 135, 100, 91]"] ;
76 -> 77 ;
78 [label="X[2761] <= 0.5\ngini = 0.901\nsamples = 3826\nvalue = [68, 141, 106, 182, 97, 431, 119, 173, 100, 723, 64\n109, 43, 361, 57, 79, 648, 135, 99, 91]"] ;
77 -> 78 ;
79 [label="X[3719] <= 0.5\ngini = 0.9\nsamples = 3798\nvalue = [68, 140, 106, 182, 97, 431, 102, 168, 100, 722, 64\n109, 43, 361, 55, 79, 646, 135, 99, 91]"] ;
78 -> 79 ;
80 [label="X[946] <= 0.5\ngini = 0.9\nsamples = 3783\nvalue = [68, 140, 106, 182, 97, 431, 102, 168, 100, 722, 64\n109, 43, 361, 55, 79, 631, 135, 99, 91]"] ;
79 -> 80 ;
81 [label="X[5756] <= 0.5\ngini = 0.899\nsamples = 3759\nvalue = [68, 140, 106, 182, 94, 431, 102, 168, 100, 722, 64\n108, 43, 361, 55, 79, 631, 135, 85, 85]"] ;
80 -> 81 ;
82 [label="X[6558] <= 0.5\ngini = 0.899\nsamples = 3746\nvalue = [68, 140, 106, 170, 94, 431, 102, 168, 100, 722, 64\n107, 43, 361, 55, 79, 631, 135, 85, 85]"] ;
81 -> 82 ;
83 [label="X[3355] <= 0.5\ngini = 0.9\nsamples = 3697\nvalue = [64, 139, 105, 170, 94, 429, 99, 168, 100, 691, 64\n106, 43, 359, 55, 79, 627, 135, 85, 85]"] ;
82 -> 83 ;
84 [label="X[1644] <= 0.5\ngini = 0.9\nsamples = 3623\nvalue = [64, 139, 105, 164, 92, 396, 99, 164, 99, 684, 63\n106, 42, 358, 54, 79, 623, 135, 80, 77]"] ;
83 -> 84 ;
85 [label="X[4088] <= 0.5\ngini = 0.899\nsamples = 3576\nvalue = [64, 138, 105, 163, 92, 395, 99, 163, 99, 683, 55\n105, 42, 335, 54, 79, 618, 134, 78, 75]"] ;
84 -> 85 ;
86 [label="X[1351] <= 0.5\ngini = 0.9\nsamples = 3558\nvalue = [64, 138, 104, 163, 92, 395, 99, 163, 99, 683, 55\n105, 42, 335, 54, 79, 602, 134, 77, 75]"] ;
85 -> 86 ;
87 [label="X[2377] <= 0.5\ngini = 0.901\nsamples = 3540\nvalue = [64, 138, 104, 163, 92, 395, 99, 163, 99, 667, 55\n105, 42, 335, 54, 79, 602, 133, 76, 75]"] ;
86 -> 87 ;
88 [label="X[465] <= 0.5\ngini = 0.902\nsamples = 3491\nvalue = [64, 137, 104, 160, 92, 388, 97, 163, 99, 638, 55\n105, 42, 335, 54, 78, 600, 130, 76, 74]"] ;
87 -> 88 ;
89 [label="X[5709] <= 0.5\ngini = 0.901\nsamples = 3461\nvalue = [64, 137, 104, 160, 92, 387, 87, 149, 98, 636, 55\n105, 42, 334, 54, 78, 599, 130, 76, 74]"] ;
88 -> 89 ;
90 [label="X[1309] <= 0.5\ngini = 0.902\nsamples = 3434\nvalue = [64, 137, 104, 160, 92, 387, 86, 149, 98, 616, 55\n105, 42, 332, 54, 78, 598, 130, 74, 73]"] ;
89 -> 90 ;
91 [label="X[6079] <= 0.5\ngini = 0.902\nsamples = 3425\nvalue = [55, 137, 104, 160, 92, 387, 86, 149, 98, 616, 55\n105, 42, 332, 54, 78, 598, 130, 74, 73]"] ;
90 -> 91 ;
92 [label="X[482] <= 0.5\ngini = 0.901\nsamples = 3399\nvalue = [55, 137, 104, 146, 91, 387, 86, 149, 98, 616, 55\n102, 40, 332, 54, 78, 597, 130, 69, 73]"] ;
91 -> 92 ;
93 [label="X[4695] <= 0.5\ngini = 0.899\nsamples = 3327\nvalue = [42, 137, 104, 145, 89, 386, 86, 142, 98, 614, 50\n101, 40, 311, 54, 78, 592, 127, 61, 70]"] ;
92 -> 93 ;
94 [label="X[4598] <= 0.5\ngini = 0.9\nsamples = 3302\nvalue = [42, 137, 103, 145, 89, 386, 86, 142, 98, 612, 50\n100, 40, 309, 54, 78, 573, 127, 61, 70]"] ;
93 -> 94 ;
95 [label="X[1662] <= 0.5\ngini = 0.899\nsamples = 3293\nvalue = [42, 137, 103, 145, 89, 386, 86, 142, 98, 612, 50\n91, 40, 309, 54, 78, 573, 127, 61, 70]"] ;
94 -> 95 ;
96 [label="X[6591] <= 0.5\ngini = 0.899\nsamples = 3209\nvalue = [42, 136, 100, 145, 89, 381, 86, 137, 97, 607, 44\n87, 39, 278, 53, 78, 562, 123, 58, 67]"] ;
95 -> 96 ;
97 [label="X[3416] <= 0.5\ngini = 0.9\nsamples = 3160\nvalue = [42, 136, 99, 145, 89, 377, 86, 137, 97, 601, 44\n87, 39, 277, 52, 78, 535, 114, 58, 67]"] ;
96 -> 97 ;
98 [label="X[2524] <= 0.5\ngini = 0.899\nsamples = 3141\nvalue = [42, 136, 99, 145, 89, 376, 86, 124, 96, 601, 44\n86, 39, 277, 52, 78, 533, 114, 57, 67]"] ;
97 -> 98 ;
99 [label="X[1973] <= 0.5\ngini = 0.9\nsamples = 3098\nvalue = [42, 136, 99, 145, 88, 375, 85, 124, 95, 597, 44\n86, 39, 256, 52, 77, 520, 114, 57, 67]"] ;
98 -> 99 ;
100 [label="X[6320] <= 0.5\ngini = 0.901\nsamples = 3077\nvalue = [42, 136, 99, 145, 88, 373, 85, 124, 94, 580, 44\n86, 39, 256, 52, 77, 519, 114, 57, 67]"] ;
99 -> 100 ;
101 [label="X[435] <= 0.5\ngini = 0.901\nsamples = 3058\nvalue = [42, 136, 98, 145, 87, 373, 85, 124, 94, 580, 44\n85, 39, 256, 52, 77, 504, 114, 57, 66]"] ;
100 -> 101 ;
102 [label="X[5662] <= 0.5\ngini = 0.902\nsamples = 3042\nvalue = [42, 136, 98, 145, 87, 371, 85, 124, 94, 566, 44\n85, 39, 256, 52, 77, 504, 114, 57, 66]"] ;
101 -> 102 ;
103 [label="X[6191] <= 0.5\ngini = 0.901\nsamples = 3021\nvalue = [41, 136, 98, 142, 87, 371, 85, 112, 94, 566, 44\n83, 39, 256, 51, 77, 504, 114, 56, 65]"] ;
102 -> 103 ;
104 [label="X[5109] <= 0.5\ngini = 0.902\nsamples = 2997\nvalue = [41, 136, 93, 142, 86, 371, 85, 111, 94, 565, 44\n83, 39, 256, 51, 77, 488, 114, 56, 65]"] ;
103 -> 104 ;
105 [label="X[5811] <= 0.5\ngini = 0.901\nsamples = 2982\nvalue = [41, 136, 93, 142, 86, 371, 75, 108, 94, 565, 44\n82, 39, 256, 51, 77, 488, 114, 56, 64]"] ;
104 -> 105 ;
106 [label="X[1735] <= 0.5\ngini = 0.9\nsamples = 2971\nvalue = [41, 127, 93, 142, 86, 371, 75, 108, 93, 565, 43\n82, 39, 256, 51, 77, 488, 114, 56, 64]"] ;
105 -> 106 ;
107 [label="X[1141] <= 0.5\ngini = 0.901\nsamples = 2956\nvalue = [41, 127, 93, 142, 86, 359, 75, 108, 93, 563, 43\n82, 39, 256, 51, 77, 488, 113, 56, 64]"] ;
106 -> 107 ;
108 [label="X[933] <= 0.5\ngini = 0.902\nsamples = 2915\nvalue = [41, 126, 93, 139, 86, 351, 75, 108, 92, 540, 43\n82, 39, 254, 51, 76, 488, 111, 56, 64]"] ;
107 -> 108 ;
109 [label="X[6249] <= 0.5\ngini = 0.902\nsamples = 2836\nvalue = [41, 117, 91, 138, 86, 320, 75, 107, 88, 527, 43\n82, 39, 247, 51, 74, 481, 109, 56, 64]"] ;
108 -> 109 ;
110 [label="X[6142] <= 0.5\ngini = 0.901\nsamples = 2808\nvalue = [41, 117, 91, 126, 86, 320, 74, 106, 87, 527, 43\n79, 36, 246, 51, 74, 481, 109, 53, 61]"] ;
109 -> 110 ;
111 [label="X[3675] <= 0.5\ngini = 0.901\nsamples = 2799\nvalue = [41, 117, 91, 118, 85, 320, 74, 106, 87, 527, 43\n79, 36, 246, 51, 74, 481, 109, 53, 61]"] ;
110 -> 111 ;
112 [label="X[3102] <= 0.5\ngini = 0.901\nsamples = 2789\nvalue = [41, 117, 91, 118, 85, 320, 74, 106, 87, 517, 43\n79, 36, 246, 51, 74, 481, 109, 53, 61]"] ;
111 -> 112 ;
113 [label="X[3303] <= 0.5\ngini = 0.902\nsamples = 2760\nvalue = [41, 117, 84, 117, 85, 319, 74, 106, 87, 517, 43\n78, 36, 244, 51, 74, 465, 108, 53, 61]"] ;
112 -> 113 ;
114 [label="X[2687] <= 0.5\ngini = 0.901\nsamples = 2750\nvalue = [41, 117, 84, 117, 85, 319, 74, 106, 87, 517, 43\n77, 36, 244, 43, 74, 464, 108, 53, 61]"] ;
113 -> 114 ;
115 [label="X[3577] <= 0.5\ngini = 0.9\nsamples = 2717\nvalue = [41, 116, 81, 117, 84, 319, 74, 93, 87, 516, 43\n74, 35, 238, 43, 74, 463, 106, 53, 60]"] ;
114 -> 115 ;
116 [label="X[148] <= 0.5\ngini = 0.901\nsamples = 2689\nvalue = [41, 115, 80, 116, 83, 317, 74, 92, 87, 515, 43\n74, 35, 238, 40, 74, 446, 106, 53, 60]"] ;
115 -> 116 ;
117 [label="X[6280] <= 0.5\ngini = 0.901\nsamples = 2585\nvalue = [41, 97, 79, 116, 81, 287, 73, 91, 81, 491, 43\n73, 35, 233, 40, 73, 437, 104, 51, 59]"] ;
116 -> 117 ;
118 [label="X[5908] <= 0.5\ngini = 0.901\nsamples = 2578\nvalue = [41, 97, 79, 116, 81, 287, 73, 91, 81, 491, 43\n73, 35, 226, 40, 73, 437, 104, 51, 59]"] ;
117 -> 118 ;
119 [label="X[991] <= 0.5\ngini = 0.901\nsamples = 2571\nvalue = [41, 97, 79, 116, 81, 287, 73, 91, 81, 491, 43\n73, 35, 219, 40, 73, 437, 104, 51, 59]"] ;
118 -> 119 ;
120 [label="X[2807] <= 0.5\ngini = 0.902\nsamples = 2560\nvalue = [41, 97, 79, 116, 81, 287, 72, 91, 81, 481, 43\n73, 35, 219, 40, 73, 437, 104, 51, 59]"] ;
119 -> 120 ;
121 [label="X[309] <= 0.5\ngini = 0.901\nsamples = 2549\nvalue = [41, 97, 79, 108, 80, 287, 72, 91, 81, 481, 43\n73, 35, 219, 40, 73, 437, 104, 50, 58]"] ;
120 -> 121 ;
122 [label="X[3353] <= 0.5\ngini = 0.901\nsamples = 2499\nvalue = [41, 96, 79, 108, 80, 282, 71, 91, 79, 478, 43\n73, 35, 211, 40, 57, 424, 103, 50, 58]"] ;
121 -> 122 ;
123 [label="X[2537] <= 0.5\ngini = 0.899\nsamples = 2433\nvalue = [31, 96, 78, 107, 75, 281, 71, 90, 78, 474, 42\n72, 35, 200, 40, 56, 418, 95, 47, 47]"] ;
122 -> 123 ;
124 [label="X[3933] <= 0.5\ngini = 0.899\nsamples = 2414\nvalue = [31, 93, 78, 107, 75, 281, 71, 90, 78, 474, 42\n72, 35, 189, 40, 56, 414, 94, 47, 47]"] ;
123 -> 124 ;
125 [label="X[1127] <= 0.5\ngini = 0.9\nsamples = 2382\nvalue = [31, 93, 76, 107, 75, 276, 70, 90, 77, 455, 42\n72, 35, 189, 40, 55, 413, 92, 47, 47]"] ;
124 -> 125 ;
126 [label="X[6080] <= 0.5\ngini = 0.9\nsamples = 2376\nvalue = [31, 93, 76, 107, 75, 276, 70, 90, 77, 455, 42\n72, 35, 189, 40, 55, 413, 86, 47, 47]"] ;
125 -> 126 ;
127 [label="X[3175] <= 0.5\ngini = 0.9\nsamples = 2370\nvalue = [31, 93, 76, 101, 75, 276, 70, 90, 77, 455, 42\n72, 35, 189, 40, 55, 413, 86, 47, 47]"] ;
126 -> 127 ;
128 [label="X[2480] <= 0.5\ngini = 0.9\nsamples = 2360\nvalue = [31, 93, 76, 101, 75, 276, 70, 90, 77, 454, 42\n72, 35, 189, 40, 55, 404, 86, 47, 47]"] ;
127 -> 128 ;
129 [label="X[1345] <= 0.5\ngini = 0.902\nsamples = 2264\nvalue = [31, 93, 76, 100, 75, 251, 64, 88, 69, 421, 41\n72, 34, 186, 40, 55, 393, 83, 46, 46]"] ;
128 -> 129 ;
130 [label="X[2612] <= 0.5\ngini = 0.902\nsamples = 2256\nvalue = [31, 93, 76, 100, 75, 251, 64, 88, 69, 421, 41\n72, 34, 186, 40, 55, 393, 83, 40, 44]"] ;
129 -> 130 ;
131 [label="X[5135] <= 0.5\ngini = 0.902\nsamples = 2160\nvalue = [28, 92, 65, 99, 74, 237, 63, 88, 68, 414, 40, 64\n34, 179, 38, 49, 362, 83, 40, 43]"] ;
130 -> 131 ;
132 [label="X[4909] <= 0.5\ngini = 0.903\nsamples = 2143\nvalue = [28, 92, 64, 99, 74, 236, 63, 88, 67, 412, 40, 64\n34, 179, 38, 49, 350, 83, 40, 43]"] ;
131 -> 132 ;
133 [label="X[1228] <= 0.5\ngini = 0.903\nsamples = 2136\nvalue = [28, 92, 64, 99, 74, 236, 63, 88, 67, 412, 40, 64\n34, 179, 38, 49, 343, 83, 40, 43]"] ;
132 -> 133 ;
134 [label="X[4354] <= 0.5\ngini = 0.904\nsamples = 2111\nvalue = [28, 87, 63, 98, 74, 235, 63, 88, 65, 412, 40, 64\n34, 179, 38, 48, 330, 82, 40, 43]"] ;
133 -> 134 ;
135 [label="X[6231] <= 0.5\ngini = 0.903\nsamples = 2106\nvalue = [23, 87, 63, 98, 74, 235, 63, 88, 65, 412, 40, 64\n34, 179, 38, 48, 330, 82, 40, 43]"] ;
134 -> 135 ;
136 [label="X[2868] <= 0.5\ngini = 0.903\nsamples = 2101\nvalue = [23, 87, 63, 98, 74, 235, 63, 88, 65, 412, 40, 64\n29, 179, 38, 48, 330, 82, 40, 43]"] ;
135 -> 136 ;
137 [label="X[5522] <= 0.5\ngini = 0.903\nsamples = 2095\nvalue = [23, 87, 63, 98, 74, 229, 63, 88, 65, 412, 40, 64\n29, 179, 38, 48, 330, 82, 40, 43]"] ;
136 -> 137 ;
138 [label="X[5684] <= 0.5\ngini = 0.904\nsamples = 2075\nvalue = [23, 87, 63, 98, 74, 226, 62, 88, 63, 399, 40, 64\n29, 179, 38, 48, 330, 81, 40, 43]"] ;
137 -> 138 ;
139 [label="X[1432] <= 0.5\ngini = 0.903\nsamples = 2070\nvalue = [23, 87, 63, 98, 69, 226, 62, 88, 63, 399, 40, 64\n29, 179, 38, 48, 330, 81, 40, 43]"] ;
138 -> 139 ;
140 [label="X[5724] <= 0.5\ngini = 0.902\nsamples = 2052\nvalue = [20, 86, 63, 98, 62, 226, 62, 87, 63, 399, 36, 64\n29, 179, 38, 48, 330, 80, 40, 42]"] ;
139 -> 140 ;
141 [label="X[2954] <= 0.5\ngini = 0.902\nsamples = 2047\nvalue = [20, 81, 63, 98, 62, 226, 62, 87, 63, 399, 36, 64\n29, 179, 38, 48, 330, 80, 40, 42]"] ;
140 -> 141 ;
142 [label="X[5632] <= 0.5\ngini = 0.902\nsamples = 2042\nvalue = [20, 81, 63, 98, 62, 226, 62, 82, 63, 399, 36, 64\n29, 179, 38, 48, 330, 80, 40, 42]"] ;
141 -> 142 ;
143 [label="X[2571] <= 0.5\ngini = 0.901\nsamples = 2037\nvalue = [20, 81, 63, 98, 62, 226, 62, 77, 63, 399, 36, 64\n29, 179, 38, 48, 330, 80, 40, 42]"] ;
142 -> 143 ;
144 [label="X[1528] <= 0.5\ngini = 0.902\nsamples = 2030\nvalue = [20, 81, 63, 98, 62, 226, 62, 77, 63, 392, 36, 64\n29, 179, 38, 48, 330, 80, 40, 42]"] ;
143 -> 144 ;
145 [label="X[6020] <= 0.5\ngini = 0.903\nsamples = 2023\nvalue = [20, 81, 63, 98, 62, 226, 62, 77, 63, 385, 36, 64\n29, 179, 38, 48, 330, 80, 40, 42]"] ;
144 -> 145 ;
146 [label="X[2385] <= 0.5\ngini = 0.903\nsamples = 2014\nvalue = [20, 81, 63, 98, 62, 225, 62, 77, 63, 377, 36, 64\n29, 179, 38, 48, 330, 80, 40, 42]"] ;
145 -> 146 ;
147 [label="X[2371] <= 0.5\ngini = 0.903\nsamples = 1994\nvalue = [20, 81, 63, 93, 54, 225, 62, 76, 63, 376, 34, 64\n29, 179, 38, 48, 328, 80, 39, 42]"] ;
146 -> 147 ;
148 [label="X[5263] <= 0.5\ngini = 0.903\nsamples = 1955\nvalue = [19, 80, 60, 90, 54, 212, 62, 76, 63, 362, 34, 64\n29, 176, 38, 47, 328, 80, 39, 42]"] ;
147 -> 148 ;
149 [label="X[269] <= 0.5\ngini = 0.903\nsamples = 1946\nvalue = [19, 80, 60, 90, 54, 212, 62, 70, 63, 361, 34, 64\n29, 176, 38, 47, 328, 80, 37, 42]"] ;
148 -> 149 ;
150 [label="X[3877] <= 0.5\ngini = 0.903\nsamples = 1932\nvalue = [19, 80, 60, 88, 54, 212, 62, 70, 63, 361, 34, 64\n29, 176, 38, 47, 319, 80, 35, 41]"] ;
149 -> 150 ;
151 [label="X[3034] <= 0.5\ngini = 0.903\nsamples = 1926\nvalue = [19, 75, 60, 88, 54, 212, 62, 70, 62, 361, 34, 64\n29, 176, 38, 47, 319, 80, 35, 41]"] ;
150 -> 151 ;
152 [label="X[3640] <= 0.5\ngini = 0.904\nsamples = 1920\nvalue = [19, 75, 60, 88, 54, 212, 62, 70, 62, 355, 34, 64\n29, 176, 38, 47, 319, 80, 35, 41]"] ;
151 -> 152 ;
153 [label="X[4715] <= 0.5\ngini = 0.903\nsamples = 1913\nvalue = [19, 75, 60, 88, 54, 212, 62, 70, 62, 355, 29, 64\n29, 176, 37, 47, 319, 80, 35, 40]"] ;
152 -> 153 ;
154 [label="X[6132] <= 0.5\ngini = 0.902\nsamples = 1906\nvalue = [19, 75, 60, 88, 53, 212, 62, 70, 62, 355, 29, 64\n29, 176, 37, 47, 319, 80, 34, 35]"] ;
153 -> 154 ;
155 [label="X[5586] <= 0.5\ngini = 0.895\nsamples = 1478\nvalue = [17, 68, 47, 62, 24, 182, 54, 42, 50, 290, 20, 38\n20, 135, 33, 33, 255, 60, 24, 24]"] ;
154 -> 155 ;
156 [label="X[700] <= 0.5\ngini = 0.895\nsamples = 1470\nvalue = [17, 68, 47, 62, 24, 182, 54, 42, 50, 290, 20, 38\n20, 129, 32, 33, 255, 60, 24, 23]"] ;
155 -> 156 ;
157 [label="X[571] <= 0.5\ngini = 0.895\nsamples = 1458\nvalue = [17, 68, 45, 62, 24, 182, 54, 42, 48, 290, 20, 38\n20, 129, 32, 33, 247, 60, 24, 23]"] ;
156 -> 157 ;
158 [label="X[6120] <= 0.5\ngini = 0.9\nsamples = 1256\nvalue = [16, 49, 37, 60, 21, 163, 51, 39, 40, 241, 18, 35\n19, 115, 30, 22, 195, 58, 24, 23]"] ;
157 -> 158 ;
159 [label="X[953] <= 0.5\ngini = 0.9\nsamples = 1252\nvalue = [16, 49, 37, 60, 21, 163, 51, 39, 36, 241, 18, 35\n19, 115, 30, 22, 195, 58, 24, 23]"] ;
158 -> 159 ;
160 [label="X[5748] <= 0.5\ngini = 0.899\nsamples = 1248\nvalue = [16, 49, 37, 60, 21, 163, 47, 39, 36, 241, 18, 35\n19, 115, 30, 22, 195, 58, 24, 23]"] ;
159 -> 160 ;
161 [label="X[3255] <= 0.5\ngini = 0.9\nsamples = 1238\nvalue = [16, 48, 37, 60, 21, 156, 47, 39, 36, 241, 18, 35\n19, 115, 30, 22, 194, 57, 24, 23]"] ;
160 -> 161 ;
162 [label="X[3722] <= 0.5\ngini = 0.901\nsamples = 1220\nvalue = [16, 48, 35, 60, 20, 155, 47, 39, 36, 230, 18, 35\n19, 113, 30, 22, 193, 57, 24, 23]"] ;
161 -> 162 ;
163 [label="X[5906] <= 0.5\ngini = 0.9\nsamples = 1197\nvalue = [16, 47, 35, 59, 20, 154, 38, 38, 35, 227, 18, 35\n18, 112, 30, 22, 192, 56, 24, 21]"] ;
162 -> 163 ;
164 [label="X[2891] <= 0.5\ngini = 0.9\nsamples = 1193\nvalue = [16, 47, 35, 59, 20, 154, 38, 38, 35, 227, 18, 35\n18, 108, 30, 22, 192, 56, 24, 21]"] ;
163 -> 164 ;
165 [label="X[1] <= 5.5\ngini = 0.9\nsamples = 1188\nvalue = [16, 47, 35, 59, 20, 154, 38, 38, 35, 222, 18, 35\n18, 108, 30, 22, 192, 56, 24, 21]"] ;
164 -> 165 ;
166 [label="X[3428] <= 0.5\ngini = 0.89\nsamples = 597\nvalue = [8, 25, 12, 27, 12, 71, 14, 18, 16, 136, 7, 21\n11, 66, 15, 12, 85, 22, 8, 11]"] ;
165 -> 166 ;
167 [label="X[575] <= 0.5\ngini = 0.889\nsamples = 593\nvalue = [8, 25, 12, 27, 12, 71, 14, 18, 16, 136, 7, 21\n11, 66, 15, 8, 85, 22, 8, 11]"] ;
166 -> 167 ;
168 [label="X[3412] <= 0.5\ngini = 0.889\nsamples = 589\nvalue = [8, 25, 12, 27, 12, 71, 14, 18, 16, 136, 7, 21\n11, 62, 15, 8, 85, 22, 8, 11]"] ;
167 -> 168 ;
169 [label="X[4499] <= 0.5\ngini = 0.885\nsamples = 574\nvalue = [8, 24, 12, 26, 8, 71, 13, 14, 16, 136, 7, 21\n11, 59, 15, 8, 85, 21, 8, 11]"] ;
168 -> 169 ;
170 [label="X[5334] <= 0.5\ngini = 0.884\nsamples = 571\nvalue = [8, 21, 12, 26, 8, 71, 13, 14, 16, 136, 7, 21\n11, 59, 15, 8, 85, 21, 8, 11]"] ;
169 -> 170 ;
171 [label="X[5124] <= 0.5\ngini = 0.883\nsamples = 568\nvalue = [8, 18, 12, 26, 8, 71, 13, 14, 16, 136, 7, 21\n11, 59, 15, 8, 85, 21, 8, 11]"] ;
170 -> 171 ;
172 [label="X[6437] <= 0.5\ngini = 0.882\nsamples = 565\nvalue = [8, 18, 12, 23, 8, 71, 13, 14, 16, 136, 7, 21\n11, 59, 15, 8, 85, 21, 8, 11]"] ;
171 -> 172 ;
173 [label="X[2843] <= 0.5\ngini = 0.881\nsamples = 553\nvalue = [8, 18, 12, 23, 8, 71, 13, 9, 16, 134, 7, 21\n11, 56, 15, 7, 84, 21, 8, 11]"] ;
172 -> 173 ;
174 [label="X[6583] <= 0.5\ngini = 0.881\nsamples = 550\nvalue = [8, 18, 12, 23, 8, 68, 13, 9, 16, 134, 7, 21\n11, 56, 15, 7, 84, 21, 8, 11]"] ;
173 -> 174 ;
175 [label="X[3306] <= 0.5\ngini = 0.883\nsamples = 546\nvalue = [8, 18, 12, 23, 8, 68, 13, 9, 16, 130, 7, 21\n11, 56, 15, 7, 84, 21, 8, 11]"] ;
174 -> 175 ;
176 [label="X[1734] <= 0.5\ngini = 0.885\nsamples = 542\nvalue = [8, 18, 12, 23, 8, 68, 13, 9, 16, 126, 7, 21\n11, 56, 15, 7, 84, 21, 8, 11]"] ;
175 -> 176 ;
177 [label="X[3513] <= 0.5\ngini = 0.884\nsamples = 538\nvalue = [8, 18, 12, 23, 8, 68, 13, 9, 16, 125, 7, 21\n11, 56, 15, 7, 84, 18, 8, 11]"] ;
176 -> 177 ;
178 [label="X[5747] <= 0.5\ngini = 0.883\nsamples = 517\nvalue = [8, 17, 12, 23, 8, 66, 9, 9, 16, 123, 7, 20, 11\n55, 12, 7, 77, 18, 8, 11]"] ;
177 -> 178 ;
179 [label="X[581] <= 0.5\ngini = 0.884\nsamples = 509\nvalue = [7, 17, 12, 23, 8, 66, 9, 9, 16, 122, 7, 20, 11\n54, 12, 7, 72, 18, 8, 11]"] ;
178 -> 179 ;
180 [label="X[2530] <= 0.5\ngini = 0.883\nsamples = 504\nvalue = [7, 17, 12, 23, 8, 66, 9, 9, 14, 122, 7, 20, 11\n54, 12, 7, 69, 18, 8, 11]"] ;
179 -> 180 ;
181 [label="X[5837] <= 0.5\ngini = 0.885\nsamples = 487\nvalue = [7, 17, 12, 23, 8, 65, 8, 9, 14, 114, 7, 20, 11\n54, 8, 7, 67, 17, 8, 11]"] ;
180 -> 181 ;
182 [label="X[4410] <= 0.5\ngini = 0.884\nsamples = 485\nvalue = [7, 17, 12, 23, 8, 65, 8, 9, 14, 114, 5, 20, 11\n54, 8, 7, 67, 17, 8, 11]"] ;
181 -> 182 ;
183 [label="X[6199] <= 0.5\ngini = 0.884\nsamples = 483\nvalue = [7, 17, 12, 23, 8, 65, 8, 9, 14, 114, 5, 20, 11\n54, 8, 5, 67, 17, 8, 11]"] ;
182 -> 183 ;
184 [label="X[6299] <= 0.5\ngini = 0.883\nsamples = 481\nvalue = [7, 17, 12, 23, 8, 65, 8, 9, 14, 114, 5, 20, 11\n54, 8, 5, 67, 17, 6, 11]"] ;
183 -> 184 ;
185 [label="X[3167] <= 0.5\ngini = 0.882\nsamples = 479\nvalue = [7, 17, 12, 23, 8, 65, 8, 9, 14, 114, 5, 20, 11\n54, 8, 5, 67, 17, 4, 11]"] ;
184 -> 185 ;
186 [label="X[6178] <= 0.5\ngini = 0.881\nsamples = 477\nvalue = [7, 17, 12, 23, 8, 65, 8, 9, 14, 114, 5, 20, 11\n54, 8, 5, 67, 17, 2, 11]"] ;
185 -> 186 ;
187 [label="X[3642] <= 0.5\ngini = 0.88\nsamples = 475\nvalue = [7, 17, 12, 23, 8, 65, 8, 7, 14, 114, 5, 20, 11\n54, 8, 5, 67, 17, 2, 11]"] ;
186 -> 187 ;
188 [label="X[4776] <= 0.5\ngini = 0.879\nsamples = 473\nvalue = [7, 17, 12, 23, 8, 65, 8, 7, 14, 114, 5, 20, 9\n54, 8, 5, 67, 17, 2, 11]"] ;
187 -> 188 ;
189 [label="X[5786] <= 0.5\ngini = 0.878\nsamples = 471\nvalue = [7, 17, 12, 23, 8, 65, 8, 7, 14, 114, 5, 20, 9\n54, 8, 5, 67, 17, 2, 9]"] ;
188 -> 189 ;
190 [label="X[1] <= 3.5\ngini = 0.877\nsamples = 467\nvalue = [7, 17, 12, 21, 8, 65, 8, 7, 14, 114, 5, 18, 9\n54, 8, 5, 67, 17, 2, 9]"] ;
189 -> 190 ;
191 [label="X[1187] <= 0.5\ngini = 0.888\nsamples = 173\nvalue = [5, 4, 4, 9, 3, 30, 2, 4, 4, 30, 2, 11, 3, 20\n1, 1, 28, 5, 1, 6]"] ;
190 -> 191 ;
192 [label="X[1946] <= 0.5\ngini = 0.889\nsamples = 170\nvalue = [5, 4, 4, 9, 3, 30, 2, 4, 4, 27, 2, 11, 3, 20\n1, 1, 28, 5, 1, 6]"] ;
191 -> 192 ;
193 [label="X[3058] <= 0.5\ngini = 0.888\nsamples = 166\nvalue = [5, 4, 4, 9, 3, 30, 2, 3, 4, 27, 2, 11, 3, 17\n1, 1, 28, 5, 1, 6]"] ;
192 -> 193 ;
194 [label="X[2544] <= 0.5\ngini = 0.886\nsamples = 164\nvalue = [5, 2, 4, 9, 3, 30, 2, 3, 4, 27, 2, 11, 3, 17\n1, 1, 28, 5, 1, 6]"] ;
193 -> 194 ;
195 [label="X[3692] <= 0.5\ngini = 0.885\nsamples = 162\nvalue = [5, 2, 4, 9, 3, 30, 2, 3, 4, 27, 2, 9, 3, 17\n1, 1, 28, 5, 1, 6]"] ;
194 -> 195 ;
196 [label="X[184] <= 0.5\ngini = 0.881\nsamples = 159\nvalue = [5, 2, 4, 9, 3, 30, 2, 3, 4, 27, 2, 9, 2, 17\n1, 1, 28, 5, 1, 4]"] ;
195 -> 196 ;
197 [label="X[2789] <= 0.5\ngini = 0.877\nsamples = 152\nvalue = [5, 2, 4, 8, 3, 30, 2, 3, 4, 27, 2, 6, 1, 16\n1, 1, 27, 5, 1, 4]"] ;
196 -> 197 ;
198 [label="X[5176] <= 0.5\ngini = 0.872\nsamples = 148\nvalue = [4, 2, 4, 6, 3, 30, 2, 3, 4, 27, 2, 6, 0, 16\n1, 1, 27, 5, 1, 4]"] ;
197 -> 198 ;
199 [label="X[2606] <= 0.5\ngini = 0.863\nsamples = 135\nvalue = [3, 2, 2, 5, 3, 27, 2, 2, 3, 27, 1, 6, 0, 13\n1, 1, 27, 5, 1, 4]"] ;
198 -> 199 ;
200 [label="X[3986] <= 0.5\ngini = 0.861\nsamples = 130\nvalue = [3, 2, 2, 5, 3, 27, 2, 1, 3, 27, 1, 6, 0, 13\n0, 1, 24, 5, 1, 4]"] ;
199 -> 200 ;
201 [label="X[5045] <= 0.5\ngini = 0.863\nsamples = 128\nvalue = [3, 2, 2, 5, 3, 25, 2, 1, 3, 27, 1, 6, 0, 13\n0, 1, 24, 5, 1, 4]"] ;
200 -> 201 ;
202 [label="X[5532] <= 0.5\ngini = 0.865\nsamples = 126\nvalue = [3, 2, 2, 5, 3, 25, 2, 1, 3, 25, 1, 6, 0, 13\n0, 1, 24, 5, 1, 4]"] ;
201 -> 202 ;
203 [label="X[1483] <= 0.5\ngini = 0.867\nsamples = 124\nvalue = [3, 2, 2, 5, 3, 25, 2, 1, 3, 23, 1, 6, 0, 13\n0, 1, 24, 5, 1, 4]"] ;
202 -> 203 ;
204 [label="X[1914] <= 0.5\ngini = 0.866\nsamples = 121\nvalue = [3, 2, 2, 5, 3, 25, 2, 0, 3, 21, 1, 6, 0, 13\n0, 1, 24, 5, 1, 4]"] ;
203 -> 204 ;
205 [label="X[0] <= 15457.0\ngini = 0.867\nsamples = 118\nvalue = [2, 2, 2, 5, 3, 25, 2, 0, 3, 21, 1, 6, 0, 13\n0, 1, 22, 5, 1, 4]"] ;
204 -> 205 ;
206 [label="X[0] <= 14602.0\ngini = 0.824\nsamples = 36\nvalue = [0, 0, 1, 1, 1, 5, 0, 0, 0, 10, 1, 1, 0, 5\n0, 0, 8, 0, 0, 3]"] ;
205 -> 206 ;
207 [label="X[1] <= 1.5\ngini = 0.837\nsamples = 33\nvalue = [0, 0, 1, 1, 1, 5, 0, 0, 0, 7, 1, 1, 0, 5\n0, 0, 8, 0, 0, 3]"] ;
206 -> 207 ;
208 [label="X[952] <= 0.5\ngini = 0.5\nsamples = 2\nvalue = [0, 0, 0, 0, 0, 0, 0, 0, 0, 0, 0, 1, 0, 0\n0, 0, 0, 0, 0, 1]"] ;
207 -> 208 ;
209 [label="gini = 0.0\nsamples = 1\nvalue = [0, 0, 0, 0, 0, 0, 0, 0, 0, 0, 0, 1, 0, 0\n0, 0, 0, 0, 0, 0]"] ;
208 -> 209 ;
210 [label="gini = 0.0\nsamples = 1\nvalue = [0, 0, 0, 0, 0, 0, 0, 0, 0, 0, 0, 0, 0, 0\n0, 0, 0, 0, 0, 1]"] ;
208 -> 210 ;
211 [label="X[1119] <= 0.5\ngini = 0.822\nsamples = 31\nvalue = [0, 0, 1, 1, 1, 5, 0, 0, 0, 7, 1, 0, 0, 5\n0, 0, 8, 0, 0, 2]"] ;
207 -> 211 ;
212 [label="X[440] <= 0.5\ngini = 0.811\nsamples = 30\nvalue = [0, 0, 1, 1, 0, 5, 0, 0, 0, 7, 1, 0, 0, 5\n0, 0, 8, 0, 0, 2]"] ;
211 -> 212 ;
213 [label="X[999] <= 0.5\ngini = 0.799\nsamples = 29\nvalue = [0, 0, 1, 1, 0, 5, 0, 0, 0, 7, 0, 0, 0, 5\n0, 0, 8, 0, 0, 2]"] ;
212 -> 213 ;
214 [label="X[3053] <= 0.5\ngini = 0.786\nsamples = 28\nvalue = [0, 0, 1, 0, 0, 5, 0, 0, 0, 7, 0, 0, 0, 5\n0, 0, 8, 0, 0, 2]"] ;
213 -> 214 ;
215 [label="X[1065] <= 0.5\ngini = 0.771\nsamples = 27\nvalue = [0, 0, 0, 0, 0, 5, 0, 0, 0, 7, 0, 0, 0, 5\n0, 0, 8, 0, 0, 2]"] ;
214 -> 215 ;
216 [label="X[1717] <= 0.5\ngini = 0.757\nsamples = 26\nvalue = [0, 0, 0, 0, 0, 5, 0, 0, 0, 7, 0, 0, 0, 5\n0, 0, 8, 0, 0, 1]"] ;
215 -> 216 ;
217 [label="X[4251] <= 0.5\ngini = 0.739\nsamples = 25\nvalue = [0, 0, 0, 0, 0, 5, 0, 0, 0, 7, 0, 0, 0, 5\n0, 0, 8, 0, 0, 0]"] ;
216 -> 217 ;
218 [label="X[4943] <= 0.5\ngini = 0.733\nsamples = 24\nvalue = [0, 0, 0, 0, 0, 5, 0, 0, 0, 7, 0, 0, 0, 4\n0, 0, 8, 0, 0, 0]"] ;
217 -> 218 ;
219 [label="X[4724] <= 0.5\ngini = 0.722\nsamples = 23\nvalue = [0, 0, 0, 0, 0, 5, 0, 0, 0, 7, 0, 0, 0, 3\n0, 0, 8, 0, 0, 0]"] ;
218 -> 219 ;
220 [label="X[819] <= 0.5\ngini = 0.707\nsamples = 22\nvalue = [0, 0, 0, 0, 0, 5, 0, 0, 0, 7, 0, 0, 0, 2\n0, 0, 8, 0, 0, 0]"] ;
219 -> 220 ;
221 [label="X[2026] <= 0.5\ngini = 0.685\nsamples = 21\nvalue = [0, 0, 0, 0, 0, 5, 0, 0, 0, 7, 0, 0, 0, 1\n0, 0, 8, 0, 0, 0]"] ;
220 -> 221 ;
222 [label="X[2820] <= 0.5\ngini = 0.655\nsamples = 20\nvalue = [0, 0, 0, 0, 0, 5, 0, 0, 0, 7, 0, 0, 0, 0\n0, 0, 8, 0, 0, 0]"] ;
221 -> 222 ;
223 [label="X[5791] <= 0.5\ngini = 0.643\nsamples = 19\nvalue = [0, 0, 0, 0, 0, 4, 0, 0, 0, 7, 0, 0, 0, 0\n0, 0, 8, 0, 0, 0]"] ;
222 -> 223 ;
224 [label="X[1] <= 2.5\ngini = 0.623\nsamples = 18\nvalue = [0, 0, 0, 0, 0, 3, 0, 0, 0, 7, 0, 0, 0, 0\n0, 0, 8, 0, 0, 0]"] ;
223 -> 224 ;
225 [label="X[0] <= 4149.5\ngini = 0.653\nsamples = 7\nvalue = [0, 0, 0, 0, 0, 3, 0, 0, 0, 2, 0, 0, 0, 0\n0, 0, 2, 0, 0, 0]"] ;
224 -> 225 ;
226 [label="X[6385] <= 0.5\ngini = 0.444\nsamples = 3\nvalue = [0, 0, 0, 0, 0, 1, 0, 0, 0, 0, 0, 0, 0, 0\n0, 0, 2, 0, 0, 0]"] ;
225 -> 226 ;
227 [label="gini = 0.0\nsamples = 2\nvalue = [0, 0, 0, 0, 0, 0, 0, 0, 0, 0, 0, 0, 0, 0\n0, 0, 2, 0, 0, 0]"] ;
226 -> 227 ;
228 [label="gini = 0.0\nsamples = 1\nvalue = [0, 0, 0, 0, 0, 1, 0, 0, 0, 0, 0, 0, 0, 0\n0, 0, 0, 0, 0, 0]"] ;
226 -> 228 ;
229 [label="X[165] <= 0.5\ngini = 0.5\nsamples = 4\nvalue = [0, 0, 0, 0, 0, 2, 0, 0, 0, 2, 0, 0, 0, 0\n0, 0, 0, 0, 0, 0]"] ;
225 -> 229 ;
230 [label="X[0] <= 9374.5\ngini = 0.444\nsamples = 3\nvalue = [0, 0, 0, 0, 0, 1, 0, 0, 0, 2, 0, 0, 0, 0\n0, 0, 0, 0, 0, 0]"] ;
229 -> 230 ;
231 [label="gini = 0.0\nsamples = 2\nvalue = [0, 0, 0, 0, 0, 0, 0, 0, 0, 2, 0, 0, 0, 0\n0, 0, 0, 0, 0, 0]"] ;
230 -> 231 ;
232 [label="gini = 0.0\nsamples = 1\nvalue = [0, 0, 0, 0, 0, 1, 0, 0, 0, 0, 0, 0, 0, 0\n0, 0, 0, 0, 0, 0]"] ;
230 -> 232 ;
233 [label="gini = 0.0\nsamples = 1\nvalue = [0, 0, 0, 0, 0, 1, 0, 0, 0, 0, 0, 0, 0, 0\n0, 0, 0, 0, 0, 0]"] ;
229 -> 233 ;
234 [label="X[4249] <= 0.5\ngini = 0.496\nsamples = 11\nvalue = [0, 0, 0, 0, 0, 0, 0, 0, 0, 5, 0, 0, 0, 0\n0, 0, 6, 0, 0, 0]"] ;
224 -> 234 ;
235 [label="X[1849] <= 0.5\ngini = 0.48\nsamples = 10\nvalue = [0, 0, 0, 0, 0, 0, 0, 0, 0, 4, 0, 0, 0, 0\n0, 0, 6, 0, 0, 0]"] ;
234 -> 235 ;
236 [label="X[582] <= 0.5\ngini = 0.444\nsamples = 9\nvalue = [0, 0, 0, 0, 0, 0, 0, 0, 0, 3, 0, 0, 0, 0\n0, 0, 6, 0, 0, 0]"] ;
235 -> 236 ;
237 [label="X[3670] <= 0.5\ngini = 0.375\nsamples = 8\nvalue = [0, 0, 0, 0, 0, 0, 0, 0, 0, 2, 0, 0, 0, 0\n0, 0, 6, 0, 0, 0]"] ;
236 -> 237 ;
238 [label="X[1825] <= 0.5\ngini = 0.245\nsamples = 7\nvalue = [0, 0, 0, 0, 0, 0, 0, 0, 0, 1, 0, 0, 0, 0\n0, 0, 6, 0, 0, 0]"] ;
237 -> 238 ;
239 [label="gini = 0.0\nsamples = 6\nvalue = [0, 0, 0, 0, 0, 0, 0, 0, 0, 0, 0, 0, 0, 0\n0, 0, 6, 0, 0, 0]"] ;
238 -> 239 ;
240 [label="gini = 0.0\nsamples = 1\nvalue = [0, 0, 0, 0, 0, 0, 0, 0, 0, 1, 0, 0, 0, 0\n0, 0, 0, 0, 0, 0]"] ;
238 -> 240 ;
241 [label="gini = 0.0\nsamples = 1\nvalue = [0, 0, 0, 0, 0, 0, 0, 0, 0, 1, 0, 0, 0, 0\n0, 0, 0, 0, 0, 0]"] ;
237 -> 241 ;
242 [label="gini = 0.0\nsamples = 1\nvalue = [0, 0, 0, 0, 0, 0, 0, 0, 0, 1, 0, 0, 0, 0\n0, 0, 0, 0, 0, 0]"] ;
236 -> 242 ;
243 [label="gini = 0.0\nsamples = 1\nvalue = [0, 0, 0, 0, 0, 0, 0, 0, 0, 1, 0, 0, 0, 0\n0, 0, 0, 0, 0, 0]"] ;
235 -> 243 ;
244 [label="gini = 0.0\nsamples = 1\nvalue = [0, 0, 0, 0, 0, 0, 0, 0, 0, 1, 0, 0, 0, 0\n0, 0, 0, 0, 0, 0]"] ;
234 -> 244 ;
245 [label="gini = 0.0\nsamples = 1\nvalue = [0, 0, 0, 0, 0, 1, 0, 0, 0, 0, 0, 0, 0, 0\n0, 0, 0, 0, 0, 0]"] ;
223 -> 245 ;
246 [label="gini = 0.0\nsamples = 1\nvalue = [0, 0, 0, 0, 0, 1, 0, 0, 0, 0, 0, 0, 0, 0\n0, 0, 0, 0, 0, 0]"] ;
222 -> 246 ;
247 [label="gini = 0.0\nsamples = 1\nvalue = [0, 0, 0, 0, 0, 0, 0, 0, 0, 0, 0, 0, 0, 1\n0, 0, 0, 0, 0, 0]"] ;
221 -> 247 ;
248 [label="gini = 0.0\nsamples = 1\nvalue = [0, 0, 0, 0, 0, 0, 0, 0, 0, 0, 0, 0, 0, 1\n0, 0, 0, 0, 0, 0]"] ;
220 -> 248 ;
249 [label="gini = 0.0\nsamples = 1\nvalue = [0, 0, 0, 0, 0, 0, 0, 0, 0, 0, 0, 0, 0, 1\n0, 0, 0, 0, 0, 0]"] ;
219 -> 249 ;
250 [label="gini = 0.0\nsamples = 1\nvalue = [0, 0, 0, 0, 0, 0, 0, 0, 0, 0, 0, 0, 0, 1\n0, 0, 0, 0, 0, 0]"] ;
218 -> 250 ;
251 [label="gini = 0.0\nsamples = 1\nvalue = [0, 0, 0, 0, 0, 0, 0, 0, 0, 0, 0, 0, 0, 1\n0, 0, 0, 0, 0, 0]"] ;
217 -> 251 ;
252 [label="gini = 0.0\nsamples = 1\nvalue = [0, 0, 0, 0, 0, 0, 0, 0, 0, 0, 0, 0, 0, 0\n0, 0, 0, 0, 0, 1]"] ;
216 -> 252 ;
253 [label="gini = 0.0\nsamples = 1\nvalue = [0, 0, 0, 0, 0, 0, 0, 0, 0, 0, 0, 0, 0, 0\n0, 0, 0, 0, 0, 1]"] ;
215 -> 253 ;
254 [label="gini = 0.0\nsamples = 1\nvalue = [0, 0, 1, 0, 0, 0, 0, 0, 0, 0, 0, 0, 0, 0\n0, 0, 0, 0, 0, 0]"] ;
214 -> 254 ;
255 [label="gini = 0.0\nsamples = 1\nvalue = [0, 0, 0, 1, 0, 0, 0, 0, 0, 0, 0, 0, 0, 0\n0, 0, 0, 0, 0, 0]"] ;
213 -> 255 ;
256 [label="gini = 0.0\nsamples = 1\nvalue = [0, 0, 0, 0, 0, 0, 0, 0, 0, 0, 1, 0, 0, 0\n0, 0, 0, 0, 0, 0]"] ;
212 -> 256 ;
257 [label="gini = 0.0\nsamples = 1\nvalue = [0, 0, 0, 0, 1, 0, 0, 0, 0, 0, 0, 0, 0, 0\n0, 0, 0, 0, 0, 0]"] ;
211 -> 257 ;
258 [label="gini = 0.0\nsamples = 3\nvalue = [0, 0, 0, 0, 0, 0, 0, 0, 0, 3, 0, 0, 0, 0\n0, 0, 0, 0, 0, 0]"] ;
206 -> 258 ;
259 [label="X[5080] <= 0.5\ngini = 0.87\nsamples = 82\nvalue = [2, 2, 1, 4, 2, 20, 2, 0, 3, 11, 0, 5, 0, 8\n0, 1, 14, 5, 1, 1]"] ;
205 -> 259 ;
260 [label="X[2624] <= 0.5\ngini = 0.864\nsamples = 73\nvalue = [2, 2, 1, 3, 2, 20, 2, 0, 3, 10, 0, 4, 0, 7\n0, 1, 10, 5, 1, 0]"] ;
259 -> 260 ;
261 [label="X[1696] <= 0.5\ngini = 0.857\nsamples = 71\nvalue = [2, 1, 1, 3, 2, 20, 2, 0, 2, 10, 0, 4, 0, 7\n0, 1, 10, 5, 1, 0]"] ;
260 -> 261 ;
262 [label="X[3180] <= 0.5\ngini = 0.853\nsamples = 70\nvalue = [2, 1, 0, 3, 2, 20, 2, 0, 2, 10, 0, 4, 0, 7\n0, 1, 10, 5, 1, 0]"] ;
261 -> 262 ;
263 [label="X[4636] <= 0.5\ngini = 0.849\nsamples = 69\nvalue = [2, 1, 0, 3, 2, 20, 2, 0, 2, 10, 0, 4, 0, 7\n0, 1, 10, 5, 0, 0]"] ;
262 -> 263 ;
264 [label="X[1849] <= 0.5\ngini = 0.845\nsamples = 68\nvalue = [2, 0, 0, 3, 2, 20, 2, 0, 2, 10, 0, 4, 0, 7\n0, 1, 10, 5, 0, 0]"] ;
263 -> 264 ;
265 [label="X[596] <= 0.5\ngini = 0.841\nsamples = 64\nvalue = [2, 0, 0, 3, 2, 19, 1, 0, 2, 10, 0, 4, 0, 5\n0, 1, 10, 5, 0, 0]"] ;
264 -> 265 ;
266 [label="X[0] <= 20346.5\ngini = 0.836\nsamples = 63\nvalue = [2, 0, 0, 3, 2, 19, 0, 0, 2, 10, 0, 4, 0, 5\n0, 1, 10, 5, 0, 0]"] ;
265 -> 266 ;
267 [label="X[6442] <= 0.5\ngini = 0.688\nsamples = 8\nvalue = [1, 0, 0, 0, 0, 4, 0, 0, 1, 0, 0, 1, 0, 0\n0, 0, 0, 1, 0, 0]"] ;
266 -> 267 ;
268 [label="X[3445] <= 0.5\ngini = 0.612\nsamples = 7\nvalue = [1, 0, 0, 0, 0, 4, 0, 0, 1, 0, 0, 1, 0, 0\n0, 0, 0, 0, 0, 0]"] ;
267 -> 268 ;
269 [label="X[5941] <= 0.5\ngini = 0.5\nsamples = 6\nvalue = [1, 0, 0, 0, 0, 4, 0, 0, 0, 0, 0, 1, 0, 0\n0, 0, 0, 0, 0, 0]"] ;
268 -> 269 ;
270 [label="X[5553] <= 0.5\ngini = 0.32\nsamples = 5\nvalue = [0, 0, 0, 0, 0, 4, 0, 0, 0, 0, 0, 1, 0, 0\n0, 0, 0, 0, 0, 0]"] ;
269 -> 270 ;
271 [label="gini = 0.0\nsamples = 4\nvalue = [0, 0, 0, 0, 0, 4, 0, 0, 0, 0, 0, 0, 0, 0\n0, 0, 0, 0, 0, 0]"] ;
270 -> 271 ;
272 [label="gini = 0.0\nsamples = 1\nvalue = [0, 0, 0, 0, 0, 0, 0, 0, 0, 0, 0, 1, 0, 0\n0, 0, 0, 0, 0, 0]"] ;
270 -> 272 ;
273 [label="gini = 0.0\nsamples = 1\nvalue = [1, 0, 0, 0, 0, 0, 0, 0, 0, 0, 0, 0, 0, 0\n0, 0, 0, 0, 0, 0]"] ;
269 -> 273 ;
274 [label="gini = 0.0\nsamples = 1\nvalue = [0, 0, 0, 0, 0, 0, 0, 0, 1, 0, 0, 0, 0, 0\n0, 0, 0, 0, 0, 0]"] ;
268 -> 274 ;
275 [label="gini = 0.0\nsamples = 1\nvalue = [0, 0, 0, 0, 0, 0, 0, 0, 0, 0, 0, 0, 0, 0\n0, 0, 0, 1, 0, 0]"] ;
267 -> 275 ;
276 [label="X[0] <= 21984.5\ngini = 0.838\nsamples = 55\nvalue = [1, 0, 0, 3, 2, 15, 0, 0, 1, 10, 0, 3, 0, 5\n0, 1, 10, 4, 0, 0]"] ;
266 -> 276 ;
277 [label="X[6385] <= 0.5\ngini = 0.64\nsamples = 5\nvalue = [0, 0, 0, 2, 0, 0, 0, 0, 0, 2, 0, 0, 0, 0\n0, 0, 1, 0, 0, 0]"] ;
276 -> 277 ;
278 [label="X[4014] <= 0.5\ngini = 0.5\nsamples = 4\nvalue = [0, 0, 0, 2, 0, 0, 0, 0, 0, 2, 0, 0, 0, 0\n0, 0, 0, 0, 0, 0]"] ;
277 -> 278 ;
279 [label="X[4731] <= 0.5\ngini = 0.444\nsamples = 3\nvalue = [0, 0, 0, 1, 0, 0, 0, 0, 0, 2, 0, 0, 0, 0\n0, 0, 0, 0, 0, 0]"] ;
278 -> 279 ;
280 [label="gini = 0.0\nsamples = 2\nvalue = [0, 0, 0, 0, 0, 0, 0, 0, 0, 2, 0, 0, 0, 0\n0, 0, 0, 0, 0, 0]"] ;
279 -> 280 ;
281 [label="gini = 0.0\nsamples = 1\nvalue = [0, 0, 0, 1, 0, 0, 0, 0, 0, 0, 0, 0, 0, 0\n0, 0, 0, 0, 0, 0]"] ;
279 -> 281 ;
282 [label="gini = 0.0\nsamples = 1\nvalue = [0, 0, 0, 1, 0, 0, 0, 0, 0, 0, 0, 0, 0, 0\n0, 0, 0, 0, 0, 0]"] ;
278 -> 282 ;
283 [label="gini = 0.0\nsamples = 1\nvalue = [0, 0, 0, 0, 0, 0, 0, 0, 0, 0, 0, 0, 0, 0\n0, 0, 1, 0, 0, 0]"] ;
277 -> 283 ;
284 [label="X[0] <= 26112.5\ngini = 0.829\nsamples = 50\nvalue = [1, 0, 0, 1, 2, 15, 0, 0, 1, 8, 0, 3, 0, 5\n0, 1, 9, 4, 0, 0]"] ;
276 -> 284 ;
285 [label="X[0] <= 22843.5\ngini = 0.562\nsamples = 8\nvalue = [0, 0, 0, 0, 0, 5, 0, 0, 0, 0, 0, 0, 0, 1\n0, 0, 1, 1, 0, 0]"] ;
284 -> 285 ;
286 [label="X[4978] <= 0.5\ngini = 0.5\nsamples = 2\nvalue = [0, 0, 0, 0, 0, 0, 0, 0, 0, 0, 0, 0, 0, 1\n0, 0, 0, 1, 0, 0]"] ;
285 -> 286 ;
287 [label="gini = 0.0\nsamples = 1\nvalue = [0, 0, 0, 0, 0, 0, 0, 0, 0, 0, 0, 0, 0, 1\n0, 0, 0, 0, 0, 0]"] ;
286 -> 287 ;
288 [label="gini = 0.0\nsamples = 1\nvalue = [0, 0, 0, 0, 0, 0, 0, 0, 0, 0, 0, 0, 0, 0\n0, 0, 0, 1, 0, 0]"] ;
286 -> 288 ;
289 [label="X[3972] <= 0.5\ngini = 0.278\nsamples = 6\nvalue = [0, 0, 0, 0, 0, 5, 0, 0, 0, 0, 0, 0, 0, 0\n0, 0, 1, 0, 0, 0]"] ;
285 -> 289 ;
290 [label="gini = 0.0\nsamples = 5\nvalue = [0, 0, 0, 0, 0, 5, 0, 0, 0, 0, 0, 0, 0, 0\n0, 0, 0, 0, 0, 0]"] ;
289 -> 290 ;
291 [label="gini = 0.0\nsamples = 1\nvalue = [0, 0, 0, 0, 0, 0, 0, 0, 0, 0, 0, 0, 0, 0\n0, 0, 1, 0, 0, 0]"] ;
289 -> 291 ;
292 [label="X[0] <= 27749.0\ngini = 0.847\nsamples = 42\nvalue = [1, 0, 0, 1, 2, 10, 0, 0, 1, 8, 0, 3, 0, 4\n0, 1, 8, 3, 0, 0]"] ;
284 -> 292 ;
293 [label="X[2717] <= 0.5\ngini = 0.444\nsamples = 3\nvalue = [0, 0, 0, 0, 0, 0, 0, 0, 0, 0, 0, 0, 0, 2\n0, 0, 1, 0, 0, 0]"] ;
292 -> 293 ;
294 [label="gini = 0.0\nsamples = 2\nvalue = [0, 0, 0, 0, 0, 0, 0, 0, 0, 0, 0, 0, 0, 2\n0, 0, 0, 0, 0, 0]"] ;
293 -> 294 ;
295 [label="gini = 0.0\nsamples = 1\nvalue = [0, 0, 0, 0, 0, 0, 0, 0, 0, 0, 0, 0, 0, 0\n0, 0, 1, 0, 0, 0]"] ;
293 -> 295 ;
296 [label="X[0] <= 28832.5\ngini = 0.84\nsamples = 39\nvalue = [1, 0, 0, 1, 2, 10, 0, 0, 1, 8, 0, 3, 0, 2\n0, 1, 7, 3, 0, 0]"] ;
292 -> 296 ;
297 [label="X[6030] <= 0.5\ngini = 0.667\nsamples = 3\nvalue = [0, 0, 0, 0, 0, 0, 0, 0, 1, 0, 0, 1, 0, 0\n0, 0, 0, 1, 0, 0]"] ;
296 -> 297 ;
298 [label="X[2735] <= 0.5\ngini = 0.5\nsamples = 2\nvalue = [0, 0, 0, 0, 0, 0, 0, 0, 1, 0, 0, 1, 0, 0\n0, 0, 0, 0, 0, 0]"] ;
297 -> 298 ;
299 [label="gini = 0.0\nsamples = 1\nvalue = [0, 0, 0, 0, 0, 0, 0, 0, 0, 0, 0, 1, 0, 0\n0, 0, 0, 0, 0, 0]"] ;
298 -> 299 ;
300 [label="gini = 0.0\nsamples = 1\nvalue = [0, 0, 0, 0, 0, 0, 0, 0, 1, 0, 0, 0, 0, 0\n0, 0, 0, 0, 0, 0]"] ;
298 -> 300 ;
301 [label="gini = 0.0\nsamples = 1\nvalue = [0, 0, 0, 0, 0, 0, 0, 0, 0, 0, 0, 0, 0, 0\n0, 0, 0, 1, 0, 0]"] ;
297 -> 301 ;
302 [label="X[0] <= 40888.5\ngini = 0.821\nsamples = 36\nvalue = [1, 0, 0, 1, 2, 10, 0, 0, 0, 8, 0, 2, 0, 2\n0, 1, 7, 2, 0, 0]"] ;
296 -> 302 ;
303 [label="X[6246] <= 0.5\ngini = 0.695\nsamples = 20\nvalue = [0, 0, 0, 0, 0, 7, 0, 0, 0, 6, 0, 1, 0, 0\n0, 0, 6, 0, 0, 0]"] ;
302 -> 303 ;
304 [label="X[1099] <= 0.5\ngini = 0.665\nsamples = 19\nvalue = [0, 0, 0, 0, 0, 7, 0, 0, 0, 6, 0, 0, 0, 0\n0, 0, 6, 0, 0, 0]"] ;
303 -> 304 ;
305 [label="X[3549] <= 0.5\ngini = 0.66\nsamples = 18\nvalue = [0, 0, 0, 0, 0, 7, 0, 0, 0, 6, 0, 0, 0, 0\n0, 0, 5, 0, 0, 0]"] ;
304 -> 305 ;
306 [label="X[4922] <= 0.5\ngini = 0.651\nsamples = 17\nvalue = [0, 0, 0, 0, 0, 7, 0, 0, 0, 6, 0, 0, 0, 0\n0, 0, 4, 0, 0, 0]"] ;
305 -> 306 ;
307 [label="X[948] <= 0.5\ngini = 0.633\nsamples = 16\nvalue = [0, 0, 0, 0, 0, 7, 0, 0, 0, 6, 0, 0, 0, 0\n0, 0, 3, 0, 0, 0]"] ;
306 -> 307 ;
308 [label="X[6552] <= 0.5\ngini = 0.604\nsamples = 15\nvalue = [0, 0, 0, 0, 0, 7, 0, 0, 0, 6, 0, 0, 0, 0\n0, 0, 2, 0, 0, 0]"] ;
307 -> 308 ;
309 [label="X[1661] <= 0.5\ngini = 0.561\nsamples = 14\nvalue = [0, 0, 0, 0, 0, 7, 0, 0, 0, 6, 0, 0, 0, 0\n0, 0, 1, 0, 0, 0]"] ;
308 -> 309 ;
310 [label="X[6579] <= 0.5\ngini = 0.497\nsamples = 13\nvalue = [0, 0, 0, 0, 0, 7, 0, 0, 0, 6, 0, 0, 0, 0\n0, 0, 0, 0, 0, 0]"] ;
309 -> 310 ;
311 [label="X[4736] <= 0.5\ngini = 0.486\nsamples = 12\nvalue = [0, 0, 0, 0, 0, 7, 0, 0, 0, 5, 0, 0, 0, 0\n0, 0, 0, 0, 0, 0]"] ;
310 -> 311 ;
312 [label="X[5227] <= 0.5\ngini = 0.463\nsamples = 11\nvalue = [0, 0, 0, 0, 0, 7, 0, 0, 0, 4, 0, 0, 0, 0\n0, 0, 0, 0, 0, 0]"] ;
311 -> 312 ;
313 [label="X[6639] <= 0.5\ngini = 0.42\nsamples = 10\nvalue = [0, 0, 0, 0, 0, 7, 0, 0, 0, 3, 0, 0, 0, 0\n0, 0, 0, 0, 0, 0]"] ;
312 -> 313 ;
314 [label="X[2698] <= 0.5\ngini = 0.346\nsamples = 9\nvalue = [0, 0, 0, 0, 0, 7, 0, 0, 0, 2, 0, 0, 0, 0\n0, 0, 0, 0, 0, 0]"] ;
313 -> 314 ;
315 [label="X[427] <= 0.5\ngini = 0.219\nsamples = 8\nvalue = [0, 0, 0, 0, 0, 7, 0, 0, 0, 1, 0, 0, 0, 0\n0, 0, 0, 0, 0, 0]"] ;
314 -> 315 ;
316 [label="gini = 0.0\nsamples = 7\nvalue = [0, 0, 0, 0, 0, 7, 0, 0, 0, 0, 0, 0, 0, 0\n0, 0, 0, 0, 0, 0]"] ;
315 -> 316 ;
317 [label="gini = 0.0\nsamples = 1\nvalue = [0, 0, 0, 0, 0, 0, 0, 0, 0, 1, 0, 0, 0, 0\n0, 0, 0, 0, 0, 0]"] ;
315 -> 317 ;
318 [label="gini = 0.0\nsamples = 1\nvalue = [0, 0, 0, 0, 0, 0, 0, 0, 0, 1, 0, 0, 0, 0\n0, 0, 0, 0, 0, 0]"] ;
314 -> 318 ;
319 [label="gini = 0.0\nsamples = 1\nvalue = [0, 0, 0, 0, 0, 0, 0, 0, 0, 1, 0, 0, 0, 0\n0, 0, 0, 0, 0, 0]"] ;
313 -> 319 ;
320 [label="gini = 0.0\nsamples = 1\nvalue = [0, 0, 0, 0, 0, 0, 0, 0, 0, 1, 0, 0, 0, 0\n0, 0, 0, 0, 0, 0]"] ;
312 -> 320 ;
321 [label="gini = 0.0\nsamples = 1\nvalue = [0, 0, 0, 0, 0, 0, 0, 0, 0, 1, 0, 0, 0, 0\n0, 0, 0, 0, 0, 0]"] ;
311 -> 321 ;
322 [label="gini = 0.0\nsamples = 1\nvalue = [0, 0, 0, 0, 0, 0, 0, 0, 0, 1, 0, 0, 0, 0\n0, 0, 0, 0, 0, 0]"] ;
310 -> 322 ;
323 [label="gini = 0.0\nsamples = 1\nvalue = [0, 0, 0, 0, 0, 0, 0, 0, 0, 0, 0, 0, 0, 0\n0, 0, 1, 0, 0, 0]"] ;
309 -> 323 ;
324 [label="gini = 0.0\nsamples = 1\nvalue = [0, 0, 0, 0, 0, 0, 0, 0, 0, 0, 0, 0, 0, 0\n0, 0, 1, 0, 0, 0]"] ;
308 -> 324 ;
325 [label="gini = 0.0\nsamples = 1\nvalue = [0, 0, 0, 0, 0, 0, 0, 0, 0, 0, 0, 0, 0, 0\n0, 0, 1, 0, 0, 0]"] ;
307 -> 325 ;
326 [label="gini = 0.0\nsamples = 1\nvalue = [0, 0, 0, 0, 0, 0, 0, 0, 0, 0, 0, 0, 0, 0\n0, 0, 1, 0, 0, 0]"] ;
306 -> 326 ;
327 [label="gini = 0.0\nsamples = 1\nvalue = [0, 0, 0, 0, 0, 0, 0, 0, 0, 0, 0, 0, 0, 0\n0, 0, 1, 0, 0, 0]"] ;
305 -> 327 ;
328 [label="gini = 0.0\nsamples = 1\nvalue = [0, 0, 0, 0, 0, 0, 0, 0, 0, 0, 0, 0, 0, 0\n0, 0, 1, 0, 0, 0]"] ;
304 -> 328 ;
329 [label="gini = 0.0\nsamples = 1\nvalue = [0, 0, 0, 0, 0, 0, 0, 0, 0, 0, 0, 1, 0, 0\n0, 0, 0, 0, 0, 0]"] ;
303 -> 329 ;
330 [label="X[0] <= 43121.0\ngini = 0.883\nsamples = 16\nvalue = [1, 0, 0, 1, 2, 3, 0, 0, 0, 2, 0, 1, 0, 2\n0, 1, 1, 2, 0, 0]"] ;
302 -> 330 ;
331 [label="X[1] <= 2.5\ngini = 0.72\nsamples = 5\nvalue = [1, 0, 0, 1, 1, 0, 0, 0, 0, 0, 0, 0, 0, 0\n0, 0, 0, 2, 0, 0]"] ;
330 -> 331 ;
332 [label="X[0] <= 42489.5\ngini = 0.5\nsamples = 2\nvalue = [1, 0, 0, 0, 1, 0, 0, 0, 0, 0, 0, 0, 0, 0\n0, 0, 0, 0, 0, 0]"] ;
331 -> 332 ;
333 [label="gini = 0.0\nsamples = 1\nvalue = [0, 0, 0, 0, 1, 0, 0, 0, 0, 0, 0, 0, 0, 0\n0, 0, 0, 0, 0, 0]"] ;
332 -> 333 ;
334 [label="gini = 0.0\nsamples = 1\nvalue = [1, 0, 0, 0, 0, 0, 0, 0, 0, 0, 0, 0, 0, 0\n0, 0, 0, 0, 0, 0]"] ;
332 -> 334 ;
335 [label="X[4635] <= 0.5\ngini = 0.444\nsamples = 3\nvalue = [0, 0, 0, 1, 0, 0, 0, 0, 0, 0, 0, 0, 0, 0\n0, 0, 0, 2, 0, 0]"] ;
331 -> 335 ;
336 [label="gini = 0.0\nsamples = 2\nvalue = [0, 0, 0, 0, 0, 0, 0, 0, 0, 0, 0, 0, 0, 0\n0, 0, 0, 2, 0, 0]"] ;
335 -> 336 ;
337 [label="gini = 0.0\nsamples = 1\nvalue = [0, 0, 0, 1, 0, 0, 0, 0, 0, 0, 0, 0, 0, 0\n0, 0, 0, 0, 0, 0]"] ;
335 -> 337 ;
338 [label="X[4972] <= 0.5\ngini = 0.826\nsamples = 11\nvalue = [0, 0, 0, 0, 1, 3, 0, 0, 0, 2, 0, 1, 0, 2\n0, 1, 1, 0, 0, 0]"] ;
330 -> 338 ;
339 [label="X[5734] <= 0.5\ngini = 0.8\nsamples = 10\nvalue = [0, 0, 0, 0, 1, 3, 0, 0, 0, 2, 0, 1, 0, 2\n0, 0, 1, 0, 0, 0]"] ;
338 -> 339 ;
340 [label="X[3897] <= 0.5\ngini = 0.765\nsamples = 9\nvalue = [0, 0, 0, 0, 1, 3, 0, 0, 0, 2, 0, 0, 0, 2\n0, 0, 1, 0, 0, 0]"] ;
339 -> 340 ;
341 [label="X[1746] <= 0.5\ngini = 0.719\nsamples = 8\nvalue = [0, 0, 0, 0, 0, 3, 0, 0, 0, 2, 0, 0, 0, 2\n0, 0, 1, 0, 0, 0]"] ;
340 -> 341 ;
342 [label="X[821] <= 0.5\ngini = 0.653\nsamples = 7\nvalue = [0, 0, 0, 0, 0, 3, 0, 0, 0, 2, 0, 0, 0, 2\n0, 0, 0, 0, 0, 0]"] ;
341 -> 342 ;
343 [label="X[913] <= 0.5\ngini = 0.611\nsamples = 6\nvalue = [0, 0, 0, 0, 0, 3, 0, 0, 0, 1, 0, 0, 0, 2\n0, 0, 0, 0, 0, 0]"] ;
342 -> 343 ;
344 [label="X[0] <= 44477.5\ngini = 0.48\nsamples = 5\nvalue = [0, 0, 0, 0, 0, 3, 0, 0, 0, 0, 0, 0, 0, 2\n0, 0, 0, 0, 0, 0]"] ;
343 -> 344 ;
345 [label="gini = 0.0\nsamples = 1\nvalue = [0, 0, 0, 0, 0, 0, 0, 0, 0, 0, 0, 0, 0, 1\n0, 0, 0, 0, 0, 0]"] ;
344 -> 345 ;
346 [label="X[1602] <= 0.5\ngini = 0.375\nsamples = 4\nvalue = [0, 0, 0, 0, 0, 3, 0, 0, 0, 0, 0, 0, 0, 1\n0, 0, 0, 0, 0, 0]"] ;
344 -> 346 ;
347 [label="gini = 0.0\nsamples = 3\nvalue = [0, 0, 0, 0, 0, 3, 0, 0, 0, 0, 0, 0, 0, 0\n0, 0, 0, 0, 0, 0]"] ;
346 -> 347 ;
348 [label="gini = 0.0\nsamples = 1\nvalue = [0, 0, 0, 0, 0, 0, 0, 0, 0, 0, 0, 0, 0, 1\n0, 0, 0, 0, 0, 0]"] ;
346 -> 348 ;
349 [label="gini = 0.0\nsamples = 1\nvalue = [0, 0, 0, 0, 0, 0, 0, 0, 0, 1, 0, 0, 0, 0\n0, 0, 0, 0, 0, 0]"] ;
343 -> 349 ;
350 [label="gini = 0.0\nsamples = 1\nvalue = [0, 0, 0, 0, 0, 0, 0, 0, 0, 1, 0, 0, 0, 0\n0, 0, 0, 0, 0, 0]"] ;
342 -> 350 ;
351 [label="gini = 0.0\nsamples = 1\nvalue = [0, 0, 0, 0, 0, 0, 0, 0, 0, 0, 0, 0, 0, 0\n0, 0, 1, 0, 0, 0]"] ;
341 -> 351 ;
352 [label="gini = 0.0\nsamples = 1\nvalue = [0, 0, 0, 0, 1, 0, 0, 0, 0, 0, 0, 0, 0, 0\n0, 0, 0, 0, 0, 0]"] ;
340 -> 352 ;
353 [label="gini = 0.0\nsamples = 1\nvalue = [0, 0, 0, 0, 0, 0, 0, 0, 0, 0, 0, 1, 0, 0\n0, 0, 0, 0, 0, 0]"] ;
339 -> 353 ;
354 [label="gini = 0.0\nsamples = 1\nvalue = [0, 0, 0, 0, 0, 0, 0, 0, 0, 0, 0, 0, 0, 0\n0, 1, 0, 0, 0, 0]"] ;
338 -> 354 ;
355 [label="gini = 0.0\nsamples = 1\nvalue = [0, 0, 0, 0, 0, 0, 1, 0, 0, 0, 0, 0, 0, 0\n0, 0, 0, 0, 0, 0]"] ;
265 -> 355 ;
356 [label="X[2285] <= 0.5\ngini = 0.625\nsamples = 4\nvalue = [0, 0, 0, 0, 0, 1, 1, 0, 0, 0, 0, 0, 0, 2\n0, 0, 0, 0, 0, 0]"] ;
264 -> 356 ;
357 [label="X[1532] <= 0.5\ngini = 0.444\nsamples = 3\nvalue = [0, 0, 0, 0, 0, 0, 1, 0, 0, 0, 0, 0, 0, 2\n0, 0, 0, 0, 0, 0]"] ;
356 -> 357 ;
358 [label="gini = 0.0\nsamples = 2\nvalue = [0, 0, 0, 0, 0, 0, 0, 0, 0, 0, 0, 0, 0, 2\n0, 0, 0, 0, 0, 0]"] ;
357 -> 358 ;
359 [label="gini = 0.0\nsamples = 1\nvalue = [0, 0, 0, 0, 0, 0, 1, 0, 0, 0, 0, 0, 0, 0\n0, 0, 0, 0, 0, 0]"] ;
357 -> 359 ;
360 [label="gini = 0.0\nsamples = 1\nvalue = [0, 0, 0, 0, 0, 1, 0, 0, 0, 0, 0, 0, 0, 0\n0, 0, 0, 0, 0, 0]"] ;
356 -> 360 ;
361 [label="gini = 0.0\nsamples = 1\nvalue = [0, 1, 0, 0, 0, 0, 0, 0, 0, 0, 0, 0, 0, 0\n0, 0, 0, 0, 0, 0]"] ;
263 -> 361 ;
362 [label="gini = 0.0\nsamples = 1\nvalue = [0, 0, 0, 0, 0, 0, 0, 0, 0, 0, 0, 0, 0, 0\n0, 0, 0, 0, 1, 0]"] ;
262 -> 362 ;
363 [label="gini = 0.0\nsamples = 1\nvalue = [0, 0, 1, 0, 0, 0, 0, 0, 0, 0, 0, 0, 0, 0\n0, 0, 0, 0, 0, 0]"] ;
261 -> 363 ;
364 [label="X[1] <= 2.5\ngini = 0.5\nsamples = 2\nvalue = [0, 1, 0, 0, 0, 0, 0, 0, 1, 0, 0, 0, 0, 0\n0, 0, 0, 0, 0, 0]"] ;
260 -> 364 ;
365 [label="gini = 0.0\nsamples = 1\nvalue = [0, 0, 0, 0, 0, 0, 0, 0, 1, 0, 0, 0, 0, 0\n0, 0, 0, 0, 0, 0]"] ;
364 -> 365 ;
366 [label="gini = 0.0\nsamples = 1\nvalue = [0, 1, 0, 0, 0, 0, 0, 0, 0, 0, 0, 0, 0, 0\n0, 0, 0, 0, 0, 0]"] ;
364 -> 366 ;
367 [label="X[0] <= 22972.0\ngini = 0.741\nsamples = 9\nvalue = [0, 0, 0, 1, 0, 0, 0, 0, 0, 1, 0, 1, 0, 1\n0, 0, 4, 0, 0, 1]"] ;
259 -> 367 ;
368 [label="X[582] <= 0.5\ngini = 0.667\nsamples = 3\nvalue = [0, 0, 0, 0, 0, 0, 0, 0, 0, 1, 0, 1, 0, 1\n0, 0, 0, 0, 0, 0]"] ;
367 -> 368 ;
369 [label="X[652] <= 0.5\ngini = 0.5\nsamples = 2\nvalue = [0, 0, 0, 0, 0, 0, 0, 0, 0, 1, 0, 0, 0, 1\n0, 0, 0, 0, 0, 0]"] ;
368 -> 369 ;
370 [label="gini = 0.0\nsamples = 1\nvalue = [0, 0, 0, 0, 0, 0, 0, 0, 0, 0, 0, 0, 0, 1\n0, 0, 0, 0, 0, 0]"] ;
369 -> 370 ;
371 [label="gini = 0.0\nsamples = 1\nvalue = [0, 0, 0, 0, 0, 0, 0, 0, 0, 1, 0, 0, 0, 0\n0, 0, 0, 0, 0, 0]"] ;
369 -> 371 ;
372 [label="gini = 0.0\nsamples = 1\nvalue = [0, 0, 0, 0, 0, 0, 0, 0, 0, 0, 0, 1, 0, 0\n0, 0, 0, 0, 0, 0]"] ;
368 -> 372 ;
373 [label="X[4224] <= 0.5\ngini = 0.5\nsamples = 6\nvalue = [0, 0, 0, 1, 0, 0, 0, 0, 0, 0, 0, 0, 0, 0\n0, 0, 4, 0, 0, 1]"] ;
367 -> 373 ;
374 [label="X[2256] <= 0.5\ngini = 0.32\nsamples = 5\nvalue = [0, 0, 0, 1, 0, 0, 0, 0, 0, 0, 0, 0, 0, 0\n0, 0, 4, 0, 0, 0]"] ;
373 -> 374 ;
375 [label="gini = 0.0\nsamples = 4\nvalue = [0, 0, 0, 0, 0, 0, 0, 0, 0, 0, 0, 0, 0, 0\n0, 0, 4, 0, 0, 0]"] ;
374 -> 375 ;
376 [label="gini = 0.0\nsamples = 1\nvalue = [0, 0, 0, 1, 0, 0, 0, 0, 0, 0, 0, 0, 0, 0\n0, 0, 0, 0, 0, 0]"] ;
374 -> 376 ;
377 [label="gini = 0.0\nsamples = 1\nvalue = [0, 0, 0, 0, 0, 0, 0, 0, 0, 0, 0, 0, 0, 0\n0, 0, 0, 0, 0, 1]"] ;
373 -> 377 ;
378 [label="X[0] <= 42128.0\ngini = 0.444\nsamples = 3\nvalue = [1, 0, 0, 0, 0, 0, 0, 0, 0, 0, 0, 0, 0, 0\n0, 0, 2, 0, 0, 0]"] ;
204 -> 378 ;
379 [label="gini = 0.0\nsamples = 2\nvalue = [0, 0, 0, 0, 0, 0, 0, 0, 0, 0, 0, 0, 0, 0\n0, 0, 2, 0, 0, 0]"] ;
378 -> 379 ;
380 [label="gini = 0.0\nsamples = 1\nvalue = [1, 0, 0, 0, 0, 0, 0, 0, 0, 0, 0, 0, 0, 0\n0, 0, 0, 0, 0, 0]"] ;
378 -> 380 ;
381 [label="X[0] <= 24881.0\ngini = 0.444\nsamples = 3\nvalue = [0, 0, 0, 0, 0, 0, 0, 1, 0, 2, 0, 0, 0, 0\n0, 0, 0, 0, 0, 0]"] ;
203 -> 381 ;
382 [label="gini = 0.0\nsamples = 1\nvalue = [0, 0, 0, 0, 0, 0, 0, 1, 0, 0, 0, 0, 0, 0\n0, 0, 0, 0, 0, 0]"] ;
381 -> 382 ;
383 [label="gini = 0.0\nsamples = 2\nvalue = [0, 0, 0, 0, 0, 0, 0, 0, 0, 2, 0, 0, 0, 0\n0, 0, 0, 0, 0, 0]"] ;
381 -> 383 ;
384 [label="gini = 0.0\nsamples = 2\nvalue = [0, 0, 0, 0, 0, 0, 0, 0, 0, 2, 0, 0, 0, 0\n0, 0, 0, 0, 0, 0]"] ;
202 -> 384 ;
385 [label="gini = 0.0\nsamples = 2\nvalue = [0, 0, 0, 0, 0, 0, 0, 0, 0, 2, 0, 0, 0, 0\n0, 0, 0, 0, 0, 0]"] ;
201 -> 385 ;
386 [label="gini = 0.0\nsamples = 2\nvalue = [0, 0, 0, 0, 0, 2, 0, 0, 0, 0, 0, 0, 0, 0\n0, 0, 0, 0, 0, 0]"] ;
200 -> 386 ;
387 [label="X[0] <= 23421.0\ngini = 0.56\nsamples = 5\nvalue = [0, 0, 0, 0, 0, 0, 0, 1, 0, 0, 0, 0, 0, 0\n1, 0, 3, 0, 0, 0]"] ;
199 -> 387 ;
388 [label="gini = 0.0\nsamples = 3\nvalue = [0, 0, 0, 0, 0, 0, 0, 0, 0, 0, 0, 0, 0, 0\n0, 0, 3, 0, 0, 0]"] ;
387 -> 388 ;
389 [label="X[1173] <= 0.5\ngini = 0.5\nsamples = 2\nvalue = [0, 0, 0, 0, 0, 0, 0, 1, 0, 0, 0, 0, 0, 0\n1, 0, 0, 0, 0, 0]"] ;
387 -> 389 ;
390 [label="gini = 0.0\nsamples = 1\nvalue = [0, 0, 0, 0, 0, 0, 0, 1, 0, 0, 0, 0, 0, 0\n0, 0, 0, 0, 0, 0]"] ;
389 -> 390 ;
391 [label="gini = 0.0\nsamples = 1\nvalue = [0, 0, 0, 0, 0, 0, 0, 0, 0, 0, 0, 0, 0, 0\n1, 0, 0, 0, 0, 0]"] ;
389 -> 391 ;
392 [label="X[3579] <= 0.5\ngini = 0.84\nsamples = 13\nvalue = [1, 0, 2, 1, 0, 3, 0, 1, 1, 0, 1, 0, 0, 3\n0, 0, 0, 0, 0, 0]"] ;
198 -> 392 ;
393 [label="X[0] <= 34671.0\ngini = 0.843\nsamples = 11\nvalue = [1, 0, 2, 1, 0, 1, 0, 1, 1, 0, 1, 0, 0, 3\n0, 0, 0, 0, 0, 0]"] ;
392 -> 393 ;
394 [label="X[0] <= 6392.5\ngini = 0.781\nsamples = 8\nvalue = [0, 0, 0, 1, 0, 1, 0, 1, 1, 0, 1, 0, 0, 3\n0, 0, 0, 0, 0, 0]"] ;
393 -> 394 ;
395 [label="X[0] <= 940.5\ngini = 0.667\nsamples = 3\nvalue = [0, 0, 0, 1, 0, 1, 0, 0, 0, 0, 1, 0, 0, 0\n0, 0, 0, 0, 0, 0]"] ;
394 -> 395 ;
396 [label="gini = 0.0\nsamples = 1\nvalue = [0, 0, 0, 0, 0, 1, 0, 0, 0, 0, 0, 0, 0, 0\n0, 0, 0, 0, 0, 0]"] ;
395 -> 396 ;
397 [label="X[2362] <= 0.5\ngini = 0.5\nsamples = 2\nvalue = [0, 0, 0, 1, 0, 0, 0, 0, 0, 0, 1, 0, 0, 0\n0, 0, 0, 0, 0, 0]"] ;
395 -> 397 ;
398 [label="gini = 0.0\nsamples = 1\nvalue = [0, 0, 0, 1, 0, 0, 0, 0, 0, 0, 0, 0, 0, 0\n0, 0, 0, 0, 0, 0]"] ;
397 -> 398 ;
399 [label="gini = 0.0\nsamples = 1\nvalue = [0, 0, 0, 0, 0, 0, 0, 0, 0, 0, 1, 0, 0, 0\n0, 0, 0, 0, 0, 0]"] ;
397 -> 399 ;
400 [label="X[1436] <= 0.5\ngini = 0.56\nsamples = 5\nvalue = [0, 0, 0, 0, 0, 0, 0, 1, 1, 0, 0, 0, 0, 3\n0, 0, 0, 0, 0, 0]"] ;
394 -> 400 ;
401 [label="X[6350] <= 0.5\ngini = 0.375\nsamples = 4\nvalue = [0, 0, 0, 0, 0, 0, 0, 1, 0, 0, 0, 0, 0, 3\n0, 0, 0, 0, 0, 0]"] ;
400 -> 401 ;
402 [label="gini = 0.0\nsamples = 3\nvalue = [0, 0, 0, 0, 0, 0, 0, 0, 0, 0, 0, 0, 0, 3\n0, 0, 0, 0, 0, 0]"] ;
401 -> 402 ;
403 [label="gini = 0.0\nsamples = 1\nvalue = [0, 0, 0, 0, 0, 0, 0, 1, 0, 0, 0, 0, 0, 0\n0, 0, 0, 0, 0, 0]"] ;
401 -> 403 ;
404 [label="gini = 0.0\nsamples = 1\nvalue = [0, 0, 0, 0, 0, 0, 0, 0, 1, 0, 0, 0, 0, 0\n0, 0, 0, 0, 0, 0]"] ;
400 -> 404 ;
405 [label="X[3938] <= 0.5\ngini = 0.444\nsamples = 3\nvalue = [1, 0, 2, 0, 0, 0, 0, 0, 0, 0, 0, 0, 0, 0\n0, 0, 0, 0, 0, 0]"] ;
393 -> 405 ;
406 [label="gini = 0.0\nsamples = 2\nvalue = [0, 0, 2, 0, 0, 0, 0, 0, 0, 0, 0, 0, 0, 0\n0, 0, 0, 0, 0, 0]"] ;
405 -> 406 ;
407 [label="gini = 0.0\nsamples = 1\nvalue = [1, 0, 0, 0, 0, 0, 0, 0, 0, 0, 0, 0, 0, 0\n0, 0, 0, 0, 0, 0]"] ;
405 -> 407 ;
408 [label="gini = 0.0\nsamples = 2\nvalue = [0, 0, 0, 0, 0, 2, 0, 0, 0, 0, 0, 0, 0, 0\n0, 0, 0, 0, 0, 0]"] ;
392 -> 408 ;
409 [label="X[0] <= 25831.0\ngini = 0.625\nsamples = 4\nvalue = [1, 0, 0, 2, 0, 0, 0, 0, 0, 0, 0, 0, 1, 0\n0, 0, 0, 0, 0, 0]"] ;
197 -> 409 ;
410 [label="gini = 0.0\nsamples = 2\nvalue = [0, 0, 0, 2, 0, 0, 0, 0, 0, 0, 0, 0, 0, 0\n0, 0, 0, 0, 0, 0]"] ;
409 -> 410 ;
411 [label="X[1133] <= 0.5\ngini = 0.5\nsamples = 2\nvalue = [1, 0, 0, 0, 0, 0, 0, 0, 0, 0, 0, 0, 1, 0\n0, 0, 0, 0, 0, 0]"] ;
409 -> 411 ;
412 [label="gini = 0.0\nsamples = 1\nvalue = [0, 0, 0, 0, 0, 0, 0, 0, 0, 0, 0, 0, 1, 0\n0, 0, 0, 0, 0, 0]"] ;
411 -> 412 ;
413 [label="gini = 0.0\nsamples = 1\nvalue = [1, 0, 0, 0, 0, 0, 0, 0, 0, 0, 0, 0, 0, 0\n0, 0, 0, 0, 0, 0]"] ;
411 -> 413 ;
414 [label="X[0] <= 36477.0\ngini = 0.735\nsamples = 7\nvalue = [0, 0, 0, 1, 0, 0, 0, 0, 0, 0, 0, 3, 1, 1\n0, 0, 1, 0, 0, 0]"] ;
196 -> 414 ;
415 [label="X[5353] <= 0.5\ngini = 0.56\nsamples = 5\nvalue = [0, 0, 0, 0, 0, 0, 0, 0, 0, 0, 0, 3, 0, 1\n0, 0, 1, 0, 0, 0]"] ;
414 -> 415 ;
416 [label="X[1849] <= 0.5\ngini = 0.375\nsamples = 4\nvalue = [0, 0, 0, 0, 0, 0, 0, 0, 0, 0, 0, 3, 0, 0\n0, 0, 1, 0, 0, 0]"] ;
415 -> 416 ;
417 [label="gini = 0.0\nsamples = 3\nvalue = [0, 0, 0, 0, 0, 0, 0, 0, 0, 0, 0, 3, 0, 0\n0, 0, 0, 0, 0, 0]"] ;
416 -> 417 ;
418 [label="gini = 0.0\nsamples = 1\nvalue = [0, 0, 0, 0, 0, 0, 0, 0, 0, 0, 0, 0, 0, 0\n0, 0, 1, 0, 0, 0]"] ;
416 -> 418 ;
419 [label="gini = 0.0\nsamples = 1\nvalue = [0, 0, 0, 0, 0, 0, 0, 0, 0, 0, 0, 0, 0, 1\n0, 0, 0, 0, 0, 0]"] ;
415 -> 419 ;
420 [label="X[5381] <= 0.5\ngini = 0.5\nsamples = 2\nvalue = [0, 0, 0, 1, 0, 0, 0, 0, 0, 0, 0, 0, 1, 0\n0, 0, 0, 0, 0, 0]"] ;
414 -> 420 ;
421 [label="gini = 0.0\nsamples = 1\nvalue = [0, 0, 0, 1, 0, 0, 0, 0, 0, 0, 0, 0, 0, 0\n0, 0, 0, 0, 0, 0]"] ;
420 -> 421 ;
422 [label="gini = 0.0\nsamples = 1\nvalue = [0, 0, 0, 0, 0, 0, 0, 0, 0, 0, 0, 0, 1, 0\n0, 0, 0, 0, 0, 0]"] ;
420 -> 422 ;
423 [label="X[6679] <= 0.5\ngini = 0.444\nsamples = 3\nvalue = [0, 0, 0, 0, 0, 0, 0, 0, 0, 0, 0, 0, 1, 0\n0, 0, 0, 0, 0, 2]"] ;
195 -> 423 ;
424 [label="gini = 0.0\nsamples = 2\nvalue = [0, 0, 0, 0, 0, 0, 0, 0, 0, 0, 0, 0, 0, 0\n0, 0, 0, 0, 0, 2]"] ;
423 -> 424 ;
425 [label="gini = 0.0\nsamples = 1\nvalue = [0, 0, 0, 0, 0, 0, 0, 0, 0, 0, 0, 0, 1, 0\n0, 0, 0, 0, 0, 0]"] ;
423 -> 425 ;
426 [label="gini = 0.0\nsamples = 2\nvalue = [0, 0, 0, 0, 0, 0, 0, 0, 0, 0, 0, 2, 0, 0\n0, 0, 0, 0, 0, 0]"] ;
194 -> 426 ;
427 [label="gini = 0.0\nsamples = 2\nvalue = [0, 2, 0, 0, 0, 0, 0, 0, 0, 0, 0, 0, 0, 0\n0, 0, 0, 0, 0, 0]"] ;
193 -> 427 ;
428 [label="X[4460] <= 0.5\ngini = 0.375\nsamples = 4\nvalue = [0, 0, 0, 0, 0, 0, 0, 1, 0, 0, 0, 0, 0, 3\n0, 0, 0, 0, 0, 0]"] ;
192 -> 428 ;
429 [label="gini = 0.0\nsamples = 3\nvalue = [0, 0, 0, 0, 0, 0, 0, 0, 0, 0, 0, 0, 0, 3\n0, 0, 0, 0, 0, 0]"] ;
428 -> 429 ;
430 [label="gini = 0.0\nsamples = 1\nvalue = [0, 0, 0, 0, 0, 0, 0, 1, 0, 0, 0, 0, 0, 0\n0, 0, 0, 0, 0, 0]"] ;
428 -> 430 ;
431 [label="gini = 0.0\nsamples = 3\nvalue = [0, 0, 0, 0, 0, 0, 0, 0, 0, 3, 0, 0, 0, 0\n0, 0, 0, 0, 0, 0]"] ;
191 -> 431 ;
432 [label="X[4485] <= 0.5\ngini = 0.863\nsamples = 294\nvalue = [2, 13, 8, 12, 5, 35, 6, 3, 10, 84, 3, 7, 6\n34, 7, 4, 39, 12, 1, 3]"] ;
190 -> 432 ;
433 [label="X[6442] <= 0.5\ngini = 0.863\nsamples = 291\nvalue = [2, 13, 8, 12, 5, 35, 6, 3, 10, 84, 3, 7, 6\n34, 7, 4, 36, 12, 1, 3]"] ;
432 -> 433 ;
434 [label="X[3732] <= 0.5\ngini = 0.861\nsamples = 289\nvalue = [2, 13, 8, 12, 5, 35, 6, 3, 10, 84, 3, 7, 6\n34, 5, 4, 36, 12, 1, 3]"] ;
433 -> 434 ;
435 [label="X[6515] <= 0.5\ngini = 0.86\nsamples = 287\nvalue = [2, 13, 8, 12, 5, 35, 6, 3, 8, 84, 3, 7, 6\n34, 5, 4, 36, 12, 1, 3]"] ;
434 -> 435 ;
436 [label="X[1709] <= 0.5\ngini = 0.859\nsamples = 285\nvalue = [2, 13, 8, 10, 5, 35, 6, 3, 8, 84, 3, 7, 6\n34, 5, 4, 36, 12, 1, 3]"] ;
435 -> 436 ;
437 [label="X[1572] <= 0.5\ngini = 0.856\nsamples = 280\nvalue = [2, 12, 8, 10, 5, 35, 6, 3, 8, 84, 2, 7, 6\n31, 5, 4, 36, 12, 1, 3]"] ;
436 -> 437 ;
438 [label="X[728] <= 0.5\ngini = 0.854\nsamples = 275\nvalue = [2, 12, 8, 10, 5, 32, 6, 3, 8, 84, 2, 6, 5\n31, 5, 4, 36, 12, 1, 3]"] ;
437 -> 438 ;
439 [label="X[6059] <= 0.5\ngini = 0.853\nsamples = 273\nvalue = [2, 12, 8, 10, 5, 32, 6, 3, 8, 84, 2, 6, 5\n29, 5, 4, 36, 12, 1, 3]"] ;
438 -> 439 ;
440 [label="X[1960] <= 0.5\ngini = 0.853\nsamples = 271\nvalue = [2, 12, 8, 10, 5, 32, 6, 3, 8, 84, 2, 6, 5\n27, 5, 4, 36, 12, 1, 3]"] ;
439 -> 440 ;
441 [label="X[4095] <= 0.5\ngini = 0.852\nsamples = 269\nvalue = [2, 12, 8, 10, 5, 32, 6, 3, 8, 84, 2, 6, 5\n25, 5, 4, 36, 12, 1, 3]"] ;
440 -> 441 ;
442 [label="X[2959] <= 0.5\ngini = 0.851\nsamples = 267\nvalue = [2, 12, 8, 10, 5, 32, 6, 3, 8, 84, 2, 6, 5\n23, 5, 4, 36, 12, 1, 3]"] ;
441 -> 442 ;
443 [label="X[6382] <= 0.5\ngini = 0.851\nsamples = 265\nvalue = [2, 12, 8, 10, 5, 30, 6, 3, 8, 84, 2, 6, 5\n23, 5, 4, 36, 12, 1, 3]"] ;
442 -> 443 ;
444 [label="X[5860] <= 0.5\ngini = 0.85\nsamples = 263\nvalue = [2, 12, 8, 10, 5, 30, 6, 3, 8, 84, 2, 6, 5\n23, 5, 4, 34, 12, 1, 3]"] ;
443 -> 444 ;
445 [label="X[1330] <= 0.5\ngini = 0.85\nsamples = 261\nvalue = [2, 12, 8, 10, 5, 30, 6, 3, 8, 84, 2, 6, 5\n23, 5, 4, 32, 12, 1, 3]"] ;
444 -> 445 ;
446 [label="X[0] <= 48306.5\ngini = 0.85\nsamples = 259\nvalue = [2, 12, 8, 10, 5, 30, 6, 3, 8, 84, 2, 6, 5\n23, 5, 4, 30, 12, 1, 3]"] ;
445 -> 446 ;
447 [label="X[0] <= 42458.5\ngini = 0.852\nsamples = 252\nvalue = [2, 12, 8, 10, 5, 30, 6, 3, 8, 81, 2, 6, 5\n23, 5, 4, 26, 12, 1, 3]"] ;
446 -> 447 ;
448 [label="X[6385] <= 0.5\ngini = 0.838\nsamples = 222\nvalue = [1, 7, 7, 10, 4, 24, 6, 2, 8, 77, 2, 5, 4, 20\n3, 3, 24, 11, 1, 3]"] ;
447 -> 448 ;
449 [label="X[6063] <= 0.5\ngini = 0.817\nsamples = 169\nvalue = [0, 3, 5, 8, 1, 14, 6, 1, 8, 64, 2, 5, 2, 16\n2, 2, 18, 10, 1, 1]"] ;
448 -> 449 ;
450 [label="X[5841] <= 0.5\ngini = 0.813\nsamples = 166\nvalue = [0, 3, 5, 8, 1, 14, 6, 1, 8, 64, 2, 5, 2, 16\n1, 2, 16, 10, 1, 1]"] ;
449 -> 450 ;
451 [label="X[2498] <= 0.5\ngini = 0.807\nsamples = 163\nvalue = [0, 3, 5, 8, 1, 14, 6, 1, 8, 64, 1, 4, 2, 16\n1, 2, 16, 10, 0, 1]"] ;
450 -> 451 ;
452 [label="X[0] <= 27772.5\ngini = 0.801\nsamples = 160\nvalue = [0, 3, 5, 8, 1, 14, 5, 1, 8, 64, 1, 4, 2, 16\n0, 2, 16, 9, 0, 1]"] ;
451 -> 452 ;
453 [label="X[1849] <= 0.5\ngini = 0.834\nsamples = 99\nvalue = [0, 2, 2, 6, 1, 9, 4, 0, 5, 34, 1, 4, 0, 9\n0, 1, 11, 9, 0, 1]"] ;
452 -> 453 ;
454 [label="X[5080] <= 0.5\ngini = 0.825\nsamples = 95\nvalue = [0, 2, 2, 6, 1, 8, 2, 0, 5, 34, 1, 4, 0, 9\n0, 1, 11, 8, 0, 1]"] ;
453 -> 454 ;
455 [label="X[5949] <= 0.5\ngini = 0.796\nsamples = 77\nvalue = [0, 2, 2, 5, 0, 8, 2, 0, 4, 31, 0, 2, 0, 5\n0, 1, 8, 6, 0, 1]"] ;
454 -> 455 ;
456 [label="X[0] <= 27179.5\ngini = 0.782\nsamples = 74\nvalue = [0, 2, 2, 5, 0, 8, 1, 0, 4, 31, 0, 1, 0, 5\n0, 1, 8, 5, 0, 1]"] ;
455 -> 456 ;
457 [label="X[3309] <= 0.5\ngini = 0.764\nsamples = 70\nvalue = [0, 2, 2, 4, 0, 7, 1, 0, 4, 31, 0, 1, 0, 5\n0, 1, 8, 4, 0, 0]"] ;
456 -> 457 ;
458 [label="X[1546] <= 0.5\ngini = 0.75\nsamples = 68\nvalue = [0, 1, 2, 4, 0, 7, 1, 0, 4, 31, 0, 0, 0, 5\n0, 1, 8, 4, 0, 0]"] ;
457 -> 458 ;
459 [label="X[1532] <= 0.5\ngini = 0.737\nsamples = 66\nvalue = [0, 0, 2, 4, 0, 7, 1, 0, 4, 31, 0, 0, 0, 5\n0, 1, 8, 3, 0, 0]"] ;
458 -> 459 ;
460 [label="X[1610] <= 0.5\ngini = 0.761\nsamples = 60\nvalue = [0, 0, 2, 4, 0, 7, 1, 0, 4, 26, 0, 0, 0, 5\n0, 0, 8, 3, 0, 0]"] ;
459 -> 460 ;
461 [label="X[6030] <= 0.5\ngini = 0.753\nsamples = 59\nvalue = [0, 0, 2, 4, 0, 7, 0, 0, 4, 26, 0, 0, 0, 5\n0, 0, 8, 3, 0, 0]"] ;
460 -> 461 ;
462 [label="X[6421] <= 0.5\ngini = 0.741\nsamples = 57\nvalue = [0, 0, 2, 4, 0, 7, 0, 0, 3, 26, 0, 0, 0, 4\n0, 0, 8, 3, 0, 0]"] ;
461 -> 462 ;
463 [label="X[4852] <= 0.5\ngini = 0.732\nsamples = 56\nvalue = [0, 0, 1, 4, 0, 7, 0, 0, 3, 26, 0, 0, 0, 4\n0, 0, 8, 3, 0, 0]"] ;
462 -> 463 ;
464 [label="X[2844] <= 0.5\ngini = 0.723\nsamples = 55\nvalue = [0, 0, 0, 4, 0, 7, 0, 0, 3, 26, 0, 0, 0, 4\n0, 0, 8, 3, 0, 0]"] ;
463 -> 464 ;
465 [label="X[0] <= 24767.5\ngini = 0.708\nsamples = 53\nvalue = [0, 0, 0, 4, 0, 6, 0, 0, 2, 26, 0, 0, 0, 4\n0, 0, 8, 3, 0, 0]"] ;
464 -> 465 ;
466 [label="X[0] <= 14408.0\ngini = 0.738\nsamples = 49\nvalue = [0, 0, 0, 4, 0, 6, 0, 0, 2, 22, 0, 0, 0, 4\n0, 0, 8, 3, 0, 0]"] ;
465 -> 466 ;
467 [label="X[0] <= 3305.5\ngini = 0.659\nsamples = 29\nvalue = [0, 0, 0, 2, 0, 3, 0, 0, 1, 16, 0, 0, 0, 3\n0, 0, 2, 2, 0, 0]"] ;
466 -> 467 ;
468 [label="X[0] <= 927.5\ngini = 0.735\nsamples = 7\nvalue = [0, 0, 0, 0, 0, 0, 0, 0, 1, 2, 0, 0, 0, 2\n0, 0, 2, 0, 0, 0]"] ;
467 -> 468 ;
469 [label="gini = 0.0\nsamples = 2\nvalue = [0, 0, 0, 0, 0, 0, 0, 0, 0, 2, 0, 0, 0, 0\n0, 0, 0, 0, 0, 0]"] ;
468 -> 469 ;
470 [label="X[1] <= 4.5\ngini = 0.64\nsamples = 5\nvalue = [0, 0, 0, 0, 0, 0, 0, 0, 1, 0, 0, 0, 0, 2\n0, 0, 2, 0, 0, 0]"] ;
468 -> 470 ;
471 [label="gini = 0.0\nsamples = 2\nvalue = [0, 0, 0, 0, 0, 0, 0, 0, 0, 0, 0, 0, 0, 2\n0, 0, 0, 0, 0, 0]"] ;
470 -> 471 ;
472 [label="X[916] <= 0.5\ngini = 0.444\nsamples = 3\nvalue = [0, 0, 0, 0, 0, 0, 0, 0, 1, 0, 0, 0, 0, 0\n0, 0, 2, 0, 0, 0]"] ;
470 -> 472 ;
473 [label="gini = 0.0\nsamples = 2\nvalue = [0, 0, 0, 0, 0, 0, 0, 0, 0, 0, 0, 0, 0, 0\n0, 0, 2, 0, 0, 0]"] ;
472 -> 473 ;
474 [label="gini = 0.0\nsamples = 1\nvalue = [0, 0, 0, 0, 0, 0, 0, 0, 1, 0, 0, 0, 0, 0\n0, 0, 0, 0, 0, 0]"] ;
472 -> 474 ;
475 [label="X[1264] <= 0.5\ngini = 0.558\nsamples = 22\nvalue = [0, 0, 0, 2, 0, 3, 0, 0, 0, 14, 0, 0, 0, 1\n0, 0, 0, 2, 0, 0]"] ;
467 -> 475 ;
476 [label="X[3315] <= 0.5\ngini = 0.517\nsamples = 21\nvalue = [0, 0, 0, 2, 0, 3, 0, 0, 0, 14, 0, 0, 0, 0\n0, 0, 0, 2, 0, 0]"] ;
475 -> 476 ;
477 [label="X[6448] <= 0.5\ngini = 0.475\nsamples = 20\nvalue = [0, 0, 0, 2, 0, 3, 0, 0, 0, 14, 0, 0, 0, 0\n0, 0, 0, 1, 0, 0]"] ;
476 -> 477 ;
478 [label="X[3777] <= 0.5\ngini = 0.421\nsamples = 19\nvalue = [0, 0, 0, 2, 0, 3, 0, 0, 0, 14, 0, 0, 0, 0\n0, 0, 0, 0, 0, 0]"] ;
477 -> 478 ;
479 [label="X[2500] <= 0.5\ngini = 0.364\nsamples = 18\nvalue = [0, 0, 0, 1, 0, 3, 0, 0, 0, 14, 0, 0, 0, 0\n0, 0, 0, 0, 0, 0]"] ;
478 -> 479 ;
480 [label="X[3405] <= 0.5\ngini = 0.291\nsamples = 17\nvalue = [0, 0, 0, 0, 0, 3, 0, 0, 0, 14, 0, 0, 0, 0\n0, 0, 0, 0, 0, 0]"] ;
479 -> 480 ;
481 [label="X[2523] <= 0.5\ngini = 0.219\nsamples = 16\nvalue = [0, 0, 0, 0, 0, 2, 0, 0, 0, 14, 0, 0, 0, 0\n0, 0, 0, 0, 0, 0]"] ;
480 -> 481 ;
482 [label="X[255] <= 0.5\ngini = 0.124\nsamples = 15\nvalue = [0, 0, 0, 0, 0, 1, 0, 0, 0, 14, 0, 0, 0, 0\n0, 0, 0, 0, 0, 0]"] ;
481 -> 482 ;
483 [label="gini = 0.0\nsamples = 14\nvalue = [0, 0, 0, 0, 0, 0, 0, 0, 0, 14, 0, 0, 0, 0\n0, 0, 0, 0, 0, 0]"] ;
482 -> 483 ;
484 [label="gini = 0.0\nsamples = 1\nvalue = [0, 0, 0, 0, 0, 1, 0, 0, 0, 0, 0, 0, 0, 0\n0, 0, 0, 0, 0, 0]"] ;
482 -> 484 ;
485 [label="gini = 0.0\nsamples = 1\nvalue = [0, 0, 0, 0, 0, 1, 0, 0, 0, 0, 0, 0, 0, 0\n0, 0, 0, 0, 0, 0]"] ;
481 -> 485 ;
486 [label="gini = 0.0\nsamples = 1\nvalue = [0, 0, 0, 0, 0, 1, 0, 0, 0, 0, 0, 0, 0, 0\n0, 0, 0, 0, 0, 0]"] ;
480 -> 486 ;
487 [label="gini = 0.0\nsamples = 1\nvalue = [0, 0, 0, 1, 0, 0, 0, 0, 0, 0, 0, 0, 0, 0\n0, 0, 0, 0, 0, 0]"] ;
479 -> 487 ;
488 [label="gini = 0.0\nsamples = 1\nvalue = [0, 0, 0, 1, 0, 0, 0, 0, 0, 0, 0, 0, 0, 0\n0, 0, 0, 0, 0, 0]"] ;
478 -> 488 ;
489 [label="gini = 0.0\nsamples = 1\nvalue = [0, 0, 0, 0, 0, 0, 0, 0, 0, 0, 0, 0, 0, 0\n0, 0, 0, 1, 0, 0]"] ;
477 -> 489 ;
490 [label="gini = 0.0\nsamples = 1\nvalue = [0, 0, 0, 0, 0, 0, 0, 0, 0, 0, 0, 0, 0, 0\n0, 0, 0, 1, 0, 0]"] ;
476 -> 490 ;
491 [label="gini = 0.0\nsamples = 1\nvalue = [0, 0, 0, 0, 0, 0, 0, 0, 0, 0, 0, 0, 0, 1\n0, 0, 0, 0, 0, 0]"] ;
475 -> 491 ;
492 [label="X[0] <= 24120.5\ngini = 0.78\nsamples = 20\nvalue = [0, 0, 0, 2, 0, 3, 0, 0, 1, 6, 0, 0, 0, 1\n0, 0, 6, 1, 0, 0]"] ;
466 -> 492 ;
493 [label="X[0] <= 16552.0\ngini = 0.735\nsamples = 18\nvalue = [0, 0, 0, 2, 0, 3, 0, 0, 1, 6, 0, 0, 0, 0\n0, 0, 6, 0, 0, 0]"] ;
492 -> 493 ;
494 [label="X[0] <= 14940.0\ngini = 0.444\nsamples = 3\nvalue = [0, 0, 0, 0, 0, 2, 0, 0, 0, 0, 0, 0, 0, 0\n0, 0, 1, 0, 0, 0]"] ;
493 -> 494 ;
495 [label="gini = 0.0\nsamples = 1\nvalue = [0, 0, 0, 0, 0, 0, 0, 0, 0, 0, 0, 0, 0, 0\n0, 0, 1, 0, 0, 0]"] ;
494 -> 495 ;
496 [label="gini = 0.0\nsamples = 2\nvalue = [0, 0, 0, 0, 0, 2, 0, 0, 0, 0, 0, 0, 0, 0\n0, 0, 0, 0, 0, 0]"] ;
494 -> 496 ;
497 [label="X[3787] <= 0.5\ngini = 0.702\nsamples = 15\nvalue = [0, 0, 0, 2, 0, 1, 0, 0, 1, 6, 0, 0, 0, 0\n0, 0, 5, 0, 0, 0]"] ;
493 -> 497 ;
498 [label="X[5548] <= 0.5\ngini = 0.663\nsamples = 14\nvalue = [0, 0, 0, 2, 0, 1, 0, 0, 0, 6, 0, 0, 0, 0\n0, 0, 5, 0, 0, 0]"] ;
497 -> 498 ;
499 [label="X[1332] <= 0.5\ngini = 0.615\nsamples = 13\nvalue = [0, 0, 0, 2, 0, 0, 0, 0, 0, 6, 0, 0, 0, 0\n0, 0, 5, 0, 0, 0]"] ;
498 -> 499 ;
500 [label="X[328] <= 0.5\ngini = 0.569\nsamples = 12\nvalue = [0, 0, 0, 1, 0, 0, 0, 0, 0, 6, 0, 0, 0, 0\n0, 0, 5, 0, 0, 0]"] ;
499 -> 500 ;
501 [label="X[2756] <= 0.5\ngini = 0.496\nsamples = 11\nvalue = [0, 0, 0, 0, 0, 0, 0, 0, 0, 6, 0, 0, 0, 0\n0, 0, 5, 0, 0, 0]"] ;
500 -> 501 ;
502 [label="X[0] <= 19088.0\ngini = 0.494\nsamples = 9\nvalue = [0, 0, 0, 0, 0, 0, 0, 0, 0, 4, 0, 0, 0, 0\n0, 0, 5, 0, 0, 0]"] ;
501 -> 502 ;
503 [label="gini = 0.0\nsamples = 2\nvalue = [0, 0, 0, 0, 0, 0, 0, 0, 0, 0, 0, 0, 0, 0\n0, 0, 2, 0, 0, 0]"] ;
502 -> 503 ;
504 [label="X[3505] <= 0.5\ngini = 0.49\nsamples = 7\nvalue = [0, 0, 0, 0, 0, 0, 0, 0, 0, 4, 0, 0, 0, 0\n0, 0, 3, 0, 0, 0]"] ;
502 -> 504 ;
505 [label="X[0] <= 20617.5\ngini = 0.444\nsamples = 6\nvalue = [0, 0, 0, 0, 0, 0, 0, 0, 0, 4, 0, 0, 0, 0\n0, 0, 2, 0, 0, 0]"] ;
504 -> 505 ;
506 [label="gini = 0.0\nsamples = 3\nvalue = [0, 0, 0, 0, 0, 0, 0, 0, 0, 3, 0, 0, 0, 0\n0, 0, 0, 0, 0, 0]"] ;
505 -> 506 ;
507 [label="X[0] <= 23649.5\ngini = 0.444\nsamples = 3\nvalue = [0, 0, 0, 0, 0, 0, 0, 0, 0, 1, 0, 0, 0, 0\n0, 0, 2, 0, 0, 0]"] ;
505 -> 507 ;
508 [label="gini = 0.0\nsamples = 2\nvalue = [0, 0, 0, 0, 0, 0, 0, 0, 0, 0, 0, 0, 0, 0\n0, 0, 2, 0, 0, 0]"] ;
507 -> 508 ;
509 [label="gini = 0.0\nsamples = 1\nvalue = [0, 0, 0, 0, 0, 0, 0, 0, 0, 1, 0, 0, 0, 0\n0, 0, 0, 0, 0, 0]"] ;
507 -> 509 ;
510 [label="gini = 0.0\nsamples = 1\nvalue = [0, 0, 0, 0, 0, 0, 0, 0, 0, 0, 0, 0, 0, 0\n0, 0, 1, 0, 0, 0]"] ;
504 -> 510 ;
511 [label="gini = 0.0\nsamples = 2\nvalue = [0, 0, 0, 0, 0, 0, 0, 0, 0, 2, 0, 0, 0, 0\n0, 0, 0, 0, 0, 0]"] ;
501 -> 511 ;
512 [label="gini = 0.0\nsamples = 1\nvalue = [0, 0, 0, 1, 0, 0, 0, 0, 0, 0, 0, 0, 0, 0\n0, 0, 0, 0, 0, 0]"] ;
500 -> 512 ;
513 [label="gini = 0.0\nsamples = 1\nvalue = [0, 0, 0, 1, 0, 0, 0, 0, 0, 0, 0, 0, 0, 0\n0, 0, 0, 0, 0, 0]"] ;
499 -> 513 ;
514 [label="gini = 0.0\nsamples = 1\nvalue = [0, 0, 0, 0, 0, 1, 0, 0, 0, 0, 0, 0, 0, 0\n0, 0, 0, 0, 0, 0]"] ;
498 -> 514 ;
515 [label="gini = 0.0\nsamples = 1\nvalue = [0, 0, 0, 0, 0, 0, 0, 0, 1, 0, 0, 0, 0, 0\n0, 0, 0, 0, 0, 0]"] ;
497 -> 515 ;
516 [label="X[0] <= 24334.0\ngini = 0.5\nsamples = 2\nvalue = [0, 0, 0, 0, 0, 0, 0, 0, 0, 0, 0, 0, 0, 1\n0, 0, 0, 1, 0, 0]"] ;
492 -> 516 ;
517 [label="gini = 0.0\nsamples = 1\nvalue = [0, 0, 0, 0, 0, 0, 0, 0, 0, 0, 0, 0, 0, 1\n0, 0, 0, 0, 0, 0]"] ;
516 -> 517 ;
518 [label="gini = 0.0\nsamples = 1\nvalue = [0, 0, 0, 0, 0, 0, 0, 0, 0, 0, 0, 0, 0, 0\n0, 0, 0, 1, 0, 0]"] ;
516 -> 518 ;
519 [label="gini = 0.0\nsamples = 4\nvalue = [0, 0, 0, 0, 0, 0, 0, 0, 0, 4, 0, 0, 0, 0\n0, 0, 0, 0, 0, 0]"] ;
465 -> 519 ;
520 [label="X[4857] <= 0.5\ngini = 0.5\nsamples = 2\nvalue = [0, 0, 0, 0, 0, 1, 0, 0, 1, 0, 0, 0, 0, 0\n0, 0, 0, 0, 0, 0]"] ;
464 -> 520 ;
521 [label="gini = 0.0\nsamples = 1\nvalue = [0, 0, 0, 0, 0, 1, 0, 0, 0, 0, 0, 0, 0, 0\n0, 0, 0, 0, 0, 0]"] ;
520 -> 521 ;
522 [label="gini = 0.0\nsamples = 1\nvalue = [0, 0, 0, 0, 0, 0, 0, 0, 1, 0, 0, 0, 0, 0\n0, 0, 0, 0, 0, 0]"] ;
520 -> 522 ;
523 [label="gini = 0.0\nsamples = 1\nvalue = [0, 0, 1, 0, 0, 0, 0, 0, 0, 0, 0, 0, 0, 0\n0, 0, 0, 0, 0, 0]"] ;
463 -> 523 ;
524 [label="gini = 0.0\nsamples = 1\nvalue = [0, 0, 1, 0, 0, 0, 0, 0, 0, 0, 0, 0, 0, 0\n0, 0, 0, 0, 0, 0]"] ;
462 -> 524 ;
525 [label="X[687] <= 0.5\ngini = 0.5\nsamples = 2\nvalue = [0, 0, 0, 0, 0, 0, 0, 0, 1, 0, 0, 0, 0, 1\n0, 0, 0, 0, 0, 0]"] ;
461 -> 525 ;
526 [label="gini = 0.0\nsamples = 1\nvalue = [0, 0, 0, 0, 0, 0, 0, 0, 0, 0, 0, 0, 0, 1\n0, 0, 0, 0, 0, 0]"] ;
525 -> 526 ;
527 [label="gini = 0.0\nsamples = 1\nvalue = [0, 0, 0, 0, 0, 0, 0, 0, 1, 0, 0, 0, 0, 0\n0, 0, 0, 0, 0, 0]"] ;
525 -> 527 ;
528 [label="gini = 0.0\nsamples = 1\nvalue = [0, 0, 0, 0, 0, 0, 1, 0, 0, 0, 0, 0, 0, 0\n0, 0, 0, 0, 0, 0]"] ;
460 -> 528 ;
529 [label="X[955] <= 0.5\ngini = 0.278\nsamples = 6\nvalue = [0, 0, 0, 0, 0, 0, 0, 0, 0, 5, 0, 0, 0, 0\n0, 1, 0, 0, 0, 0]"] ;
459 -> 529 ;
530 [label="gini = 0.0\nsamples = 5\nvalue = [0, 0, 0, 0, 0, 0, 0, 0, 0, 5, 0, 0, 0, 0\n0, 0, 0, 0, 0, 0]"] ;
529 -> 530 ;
531 [label="gini = 0.0\nsamples = 1\nvalue = [0, 0, 0, 0, 0, 0, 0, 0, 0, 0, 0, 0, 0, 0\n0, 1, 0, 0, 0, 0]"] ;
529 -> 531 ;
532 [label="X[0] <= 4229.0\ngini = 0.5\nsamples = 2\nvalue = [0, 1, 0, 0, 0, 0, 0, 0, 0, 0, 0, 0, 0, 0\n0, 0, 0, 1, 0, 0]"] ;
458 -> 532 ;
533 [label="gini = 0.0\nsamples = 1\nvalue = [0, 1, 0, 0, 0, 0, 0, 0, 0, 0, 0, 0, 0, 0\n0, 0, 0, 0, 0, 0]"] ;
532 -> 533 ;
534 [label="gini = 0.0\nsamples = 1\nvalue = [0, 0, 0, 0, 0, 0, 0, 0, 0, 0, 0, 0, 0, 0\n0, 0, 0, 1, 0, 0]"] ;
532 -> 534 ;
535 [label="X[2228] <= 0.5\ngini = 0.5\nsamples = 2\nvalue = [0, 1, 0, 0, 0, 0, 0, 0, 0, 0, 0, 1, 0, 0\n0, 0, 0, 0, 0, 0]"] ;
457 -> 535 ;
536 [label="gini = 0.0\nsamples = 1\nvalue = [0, 1, 0, 0, 0, 0, 0, 0, 0, 0, 0, 0, 0, 0\n0, 0, 0, 0, 0, 0]"] ;
535 -> 536 ;
537 [label="gini = 0.0\nsamples = 1\nvalue = [0, 0, 0, 0, 0, 0, 0, 0, 0, 0, 0, 1, 0, 0\n0, 0, 0, 0, 0, 0]"] ;
535 -> 537 ;
538 [label="X[272] <= 0.5\ngini = 0.75\nsamples = 4\nvalue = [0, 0, 0, 1, 0, 1, 0, 0, 0, 0, 0, 0, 0, 0\n0, 0, 0, 1, 0, 1]"] ;
456 -> 538 ;
539 [label="X[209] <= 0.5\ngini = 0.667\nsamples = 3\nvalue = [0, 0, 0, 1, 0, 1, 0, 0, 0, 0, 0, 0, 0, 0\n0, 0, 0, 0, 0, 1]"] ;
538 -> 539 ;
540 [label="X[4724] <= 0.5\ngini = 0.5\nsamples = 2\nvalue = [0, 0, 0, 1, 0, 1, 0, 0, 0, 0, 0, 0, 0, 0\n0, 0, 0, 0, 0, 0]"] ;
539 -> 540 ;
541 [label="gini = 0.0\nsamples = 1\nvalue = [0, 0, 0, 0, 0, 1, 0, 0, 0, 0, 0, 0, 0, 0\n0, 0, 0, 0, 0, 0]"] ;
540 -> 541 ;
542 [label="gini = 0.0\nsamples = 1\nvalue = [0, 0, 0, 1, 0, 0, 0, 0, 0, 0, 0, 0, 0, 0\n0, 0, 0, 0, 0, 0]"] ;
540 -> 542 ;
543 [label="gini = 0.0\nsamples = 1\nvalue = [0, 0, 0, 0, 0, 0, 0, 0, 0, 0, 0, 0, 0, 0\n0, 0, 0, 0, 0, 1]"] ;
539 -> 543 ;
544 [label="gini = 0.0\nsamples = 1\nvalue = [0, 0, 0, 0, 0, 0, 0, 0, 0, 0, 0, 0, 0, 0\n0, 0, 0, 1, 0, 0]"] ;
538 -> 544 ;
545 [label="X[1] <= 4.5\ngini = 0.667\nsamples = 3\nvalue = [0, 0, 0, 0, 0, 0, 1, 0, 0, 0, 0, 1, 0, 0\n0, 0, 0, 1, 0, 0]"] ;
455 -> 545 ;
546 [label="gini = 0.0\nsamples = 1\nvalue = [0, 0, 0, 0, 0, 0, 0, 0, 0, 0, 0, 1, 0, 0\n0, 0, 0, 0, 0, 0]"] ;
545 -> 546 ;
547 [label="X[2844] <= 0.5\ngini = 0.5\nsamples = 2\nvalue = [0, 0, 0, 0, 0, 0, 1, 0, 0, 0, 0, 0, 0, 0\n0, 0, 0, 1, 0, 0]"] ;
545 -> 547 ;
548 [label="gini = 0.0\nsamples = 1\nvalue = [0, 0, 0, 0, 0, 0, 1, 0, 0, 0, 0, 0, 0, 0\n0, 0, 0, 0, 0, 0]"] ;
547 -> 548 ;
549 [label="gini = 0.0\nsamples = 1\nvalue = [0, 0, 0, 0, 0, 0, 0, 0, 0, 0, 0, 0, 0, 0\n0, 0, 0, 1, 0, 0]"] ;
547 -> 549 ;
550 [label="X[0] <= 20468.0\ngini = 0.858\nsamples = 18\nvalue = [0, 0, 0, 1, 1, 0, 0, 0, 1, 3, 1, 2, 0, 4\n0, 0, 3, 2, 0, 0]"] ;
454 -> 550 ;
551 [label="X[1532] <= 0.5\ngini = 0.765\nsamples = 9\nvalue = [0, 0, 0, 1, 0, 0, 0, 0, 1, 2, 0, 2, 0, 3\n0, 0, 0, 0, 0, 0]"] ;
550 -> 551 ;
552 [label="X[0] <= 18777.5\ngini = 0.776\nsamples = 7\nvalue = [0, 0, 0, 1, 0, 0, 0, 0, 1, 2, 0, 2, 0, 1\n0, 0, 0, 0, 0, 0]"] ;
551 -> 552 ;
553 [label="X[2994] <= 0.5\ngini = 0.444\nsamples = 3\nvalue = [0, 0, 0, 1, 0, 0, 0, 0, 0, 2, 0, 0, 0, 0\n0, 0, 0, 0, 0, 0]"] ;
552 -> 553 ;
554 [label="gini = 0.0\nsamples = 2\nvalue = [0, 0, 0, 0, 0, 0, 0, 0, 0, 2, 0, 0, 0, 0\n0, 0, 0, 0, 0, 0]"] ;
553 -> 554 ;
555 [label="gini = 0.0\nsamples = 1\nvalue = [0, 0, 0, 1, 0, 0, 0, 0, 0, 0, 0, 0, 0, 0\n0, 0, 0, 0, 0, 0]"] ;
553 -> 555 ;
556 [label="X[3549] <= 0.5\ngini = 0.625\nsamples = 4\nvalue = [0, 0, 0, 0, 0, 0, 0, 0, 1, 0, 0, 2, 0, 1\n0, 0, 0, 0, 0, 0]"] ;
552 -> 556 ;
557 [label="gini = 0.0\nsamples = 2\nvalue = [0, 0, 0, 0, 0, 0, 0, 0, 0, 0, 0, 2, 0, 0\n0, 0, 0, 0, 0, 0]"] ;
556 -> 557 ;
558 [label="X[3338] <= 0.5\ngini = 0.5\nsamples = 2\nvalue = [0, 0, 0, 0, 0, 0, 0, 0, 1, 0, 0, 0, 0, 1\n0, 0, 0, 0, 0, 0]"] ;
556 -> 558 ;
559 [label="gini = 0.0\nsamples = 1\nvalue = [0, 0, 0, 0, 0, 0, 0, 0, 0, 0, 0, 0, 0, 1\n0, 0, 0, 0, 0, 0]"] ;
558 -> 559 ;
560 [label="gini = 0.0\nsamples = 1\nvalue = [0, 0, 0, 0, 0, 0, 0, 0, 1, 0, 0, 0, 0, 0\n0, 0, 0, 0, 0, 0]"] ;
558 -> 560 ;
561 [label="gini = 0.0\nsamples = 2\nvalue = [0, 0, 0, 0, 0, 0, 0, 0, 0, 0, 0, 0, 0, 2\n0, 0, 0, 0, 0, 0]"] ;
551 -> 561 ;
562 [label="X[0] <= 23516.5\ngini = 0.79\nsamples = 9\nvalue = [0, 0, 0, 0, 1, 0, 0, 0, 0, 1, 1, 0, 0, 1\n0, 0, 3, 2, 0, 0]"] ;
550 -> 562 ;
563 [label="X[1532] <= 0.5\ngini = 0.56\nsamples = 5\nvalue = [0, 0, 0, 0, 1, 0, 0, 0, 0, 0, 1, 0, 0, 0\n0, 0, 3, 0, 0, 0]"] ;
562 -> 563 ;
564 [label="X[488] <= 0.5\ngini = 0.375\nsamples = 4\nvalue = [0, 0, 0, 0, 0, 0, 0, 0, 0, 0, 1, 0, 0, 0\n0, 0, 3, 0, 0, 0]"] ;
563 -> 564 ;
565 [label="gini = 0.0\nsamples = 3\nvalue = [0, 0, 0, 0, 0, 0, 0, 0, 0, 0, 0, 0, 0, 0\n0, 0, 3, 0, 0, 0]"] ;
564 -> 565 ;
566 [label="gini = 0.0\nsamples = 1\nvalue = [0, 0, 0, 0, 0, 0, 0, 0, 0, 0, 1, 0, 0, 0\n0, 0, 0, 0, 0, 0]"] ;
564 -> 566 ;
567 [label="gini = 0.0\nsamples = 1\nvalue = [0, 0, 0, 0, 1, 0, 0, 0, 0, 0, 0, 0, 0, 0\n0, 0, 0, 0, 0, 0]"] ;
563 -> 567 ;
568 [label="X[2705] <= 0.5\ngini = 0.625\nsamples = 4\nvalue = [0, 0, 0, 0, 0, 0, 0, 0, 0, 1, 0, 0, 0, 1\n0, 0, 0, 2, 0, 0]"] ;
562 -> 568 ;
569 [label="X[0] <= 25498.5\ngini = 0.444\nsamples = 3\nvalue = [0, 0, 0, 0, 0, 0, 0, 0, 0, 1, 0, 0, 0, 0\n0, 0, 0, 2, 0, 0]"] ;
568 -> 569 ;
570 [label="gini = 0.0\nsamples = 1\nvalue = [0, 0, 0, 0, 0, 0, 0, 0, 0, 1, 0, 0, 0, 0\n0, 0, 0, 0, 0, 0]"] ;
569 -> 570 ;
571 [label="gini = 0.0\nsamples = 2\nvalue = [0, 0, 0, 0, 0, 0, 0, 0, 0, 0, 0, 0, 0, 0\n0, 0, 0, 2, 0, 0]"] ;
569 -> 571 ;
572 [label="gini = 0.0\nsamples = 1\nvalue = [0, 0, 0, 0, 0, 0, 0, 0, 0, 0, 0, 0, 0, 1\n0, 0, 0, 0, 0, 0]"] ;
568 -> 572 ;
573 [label="X[2830] <= 0.5\ngini = 0.625\nsamples = 4\nvalue = [0, 0, 0, 0, 0, 1, 2, 0, 0, 0, 0, 0, 0, 0\n0, 0, 0, 1, 0, 0]"] ;
453 -> 573 ;
574 [label="X[0] <= 3866.0\ngini = 0.444\nsamples = 3\nvalue = [0, 0, 0, 0, 0, 1, 2, 0, 0, 0, 0, 0, 0, 0\n0, 0, 0, 0, 0, 0]"] ;
573 -> 574 ;
575 [label="gini = 0.0\nsamples = 1\nvalue = [0, 0, 0, 0, 0, 1, 0, 0, 0, 0, 0, 0, 0, 0\n0, 0, 0, 0, 0, 0]"] ;
574 -> 575 ;
576 [label="gini = 0.0\nsamples = 2\nvalue = [0, 0, 0, 0, 0, 0, 2, 0, 0, 0, 0, 0, 0, 0\n0, 0, 0, 0, 0, 0]"] ;
574 -> 576 ;
577 [label="gini = 0.0\nsamples = 1\nvalue = [0, 0, 0, 0, 0, 0, 0, 0, 0, 0, 0, 0, 0, 0\n0, 0, 0, 1, 0, 0]"] ;
573 -> 577 ;
578 [label="X[2789] <= 0.5\ngini = 0.723\nsamples = 61\nvalue = [0, 1, 3, 2, 0, 5, 1, 1, 3, 30, 0, 0, 2, 7\n0, 1, 5, 0, 0, 0]"] ;
452 -> 578 ;
579 [label="X[2544] <= 0.5\ngini = 0.697\nsamples = 58\nvalue = [0, 1, 2, 0, 0, 5, 1, 1, 3, 30, 0, 0, 2, 7\n0, 1, 5, 0, 0, 0]"] ;
578 -> 579 ;
580 [label="X[0] <= 36485.0\ngini = 0.672\nsamples = 55\nvalue = [0, 1, 2, 0, 0, 3, 1, 1, 3, 30, 0, 0, 2, 6\n0, 1, 5, 0, 0, 0]"] ;
579 -> 580 ;
581 [label="X[4421] <= 0.5\ngini = 0.536\nsamples = 33\nvalue = [0, 0, 1, 0, 0, 2, 0, 1, 2, 22, 0, 0, 1, 3\n0, 0, 1, 0, 0, 0]"] ;
580 -> 581 ;
582 [label="X[1191] <= 0.5\ngini = 0.508\nsamples = 32\nvalue = [0, 0, 1, 0, 0, 2, 0, 1, 2, 22, 0, 0, 1, 3\n0, 0, 0, 0, 0, 0]"] ;
581 -> 582 ;
583 [label="X[4547] <= 0.5\ngini = 0.477\nsamples = 31\nvalue = [0, 0, 1, 0, 0, 2, 0, 1, 2, 22, 0, 0, 0, 3\n0, 0, 0, 0, 0, 0]"] ;
582 -> 583 ;
584 [label="X[6626] <= 0.5\ngini = 0.442\nsamples = 30\nvalue = [0, 0, 1, 0, 0, 2, 0, 0, 2, 22, 0, 0, 0, 3\n0, 0, 0, 0, 0, 0]"] ;
583 -> 584 ;
585 [label="X[1570] <= 0.5\ngini = 0.404\nsamples = 29\nvalue = [0, 0, 0, 0, 0, 2, 0, 0, 2, 22, 0, 0, 0, 3\n0, 0, 0, 0, 0, 0]"] ;
584 -> 585 ;
586 [label="X[113] <= 0.5\ngini = 0.365\nsamples = 28\nvalue = [0, 0, 0, 0, 0, 2, 0, 0, 1, 22, 0, 0, 0, 3\n0, 0, 0, 0, 0, 0]"] ;
585 -> 586 ;
587 [label="X[4289] <= 0.5\ngini = 0.318\nsamples = 27\nvalue = [0, 0, 0, 0, 0, 2, 0, 0, 0, 22, 0, 0, 0, 3\n0, 0, 0, 0, 0, 0]"] ;
586 -> 587 ;
588 [label="X[5742] <= 0.5\ngini = 0.269\nsamples = 26\nvalue = [0, 0, 0, 0, 0, 1, 0, 0, 0, 22, 0, 0, 0, 3\n0, 0, 0, 0, 0, 0]"] ;
587 -> 588 ;
589 [label="X[6260] <= 0.5\ngini = 0.211\nsamples = 25\nvalue = [0, 0, 0, 0, 0, 0, 0, 0, 0, 22, 0, 0, 0, 3\n0, 0, 0, 0, 0, 0]"] ;
588 -> 589 ;
590 [label="X[4336] <= 0.5\ngini = 0.153\nsamples = 24\nvalue = [0, 0, 0, 0, 0, 0, 0, 0, 0, 22, 0, 0, 0, 2\n0, 0, 0, 0, 0, 0]"] ;
589 -> 590 ;
591 [label="X[320] <= 0.5\ngini = 0.083\nsamples = 23\nvalue = [0, 0, 0, 0, 0, 0, 0, 0, 0, 22, 0, 0, 0, 1\n0, 0, 0, 0, 0, 0]"] ;
590 -> 591 ;
592 [label="gini = 0.0\nsamples = 22\nvalue = [0, 0, 0, 0, 0, 0, 0, 0, 0, 22, 0, 0, 0, 0\n0, 0, 0, 0, 0, 0]"] ;
591 -> 592 ;
593 [label="gini = 0.0\nsamples = 1\nvalue = [0, 0, 0, 0, 0, 0, 0, 0, 0, 0, 0, 0, 0, 1\n0, 0, 0, 0, 0, 0]"] ;
591 -> 593 ;
594 [label="gini = 0.0\nsamples = 1\nvalue = [0, 0, 0, 0, 0, 0, 0, 0, 0, 0, 0, 0, 0, 1\n0, 0, 0, 0, 0, 0]"] ;
590 -> 594 ;
595 [label="gini = 0.0\nsamples = 1\nvalue = [0, 0, 0, 0, 0, 0, 0, 0, 0, 0, 0, 0, 0, 1\n0, 0, 0, 0, 0, 0]"] ;
589 -> 595 ;
596 [label="gini = 0.0\nsamples = 1\nvalue = [0, 0, 0, 0, 0, 1, 0, 0, 0, 0, 0, 0, 0, 0\n0, 0, 0, 0, 0, 0]"] ;
588 -> 596 ;
597 [label="gini = 0.0\nsamples = 1\nvalue = [0, 0, 0, 0, 0, 1, 0, 0, 0, 0, 0, 0, 0, 0\n0, 0, 0, 0, 0, 0]"] ;
587 -> 597 ;
598 [label="gini = 0.0\nsamples = 1\nvalue = [0, 0, 0, 0, 0, 0, 0, 0, 1, 0, 0, 0, 0, 0\n0, 0, 0, 0, 0, 0]"] ;
586 -> 598 ;
599 [label="gini = 0.0\nsamples = 1\nvalue = [0, 0, 0, 0, 0, 0, 0, 0, 1, 0, 0, 0, 0, 0\n0, 0, 0, 0, 0, 0]"] ;
585 -> 599 ;
600 [label="gini = 0.0\nsamples = 1\nvalue = [0, 0, 1, 0, 0, 0, 0, 0, 0, 0, 0, 0, 0, 0\n0, 0, 0, 0, 0, 0]"] ;
584 -> 600 ;
601 [label="gini = 0.0\nsamples = 1\nvalue = [0, 0, 0, 0, 0, 0, 0, 1, 0, 0, 0, 0, 0, 0\n0, 0, 0, 0, 0, 0]"] ;
583 -> 601 ;
602 [label="gini = 0.0\nsamples = 1\nvalue = [0, 0, 0, 0, 0, 0, 0, 0, 0, 0, 0, 0, 1, 0\n0, 0, 0, 0, 0, 0]"] ;
582 -> 602 ;
603 [label="gini = 0.0\nsamples = 1\nvalue = [0, 0, 0, 0, 0, 0, 0, 0, 0, 0, 0, 0, 0, 0\n0, 0, 1, 0, 0, 0]"] ;
581 -> 603 ;
604 [label="X[0] <= 41749.0\ngini = 0.802\nsamples = 22\nvalue = [0, 1, 1, 0, 0, 1, 1, 0, 1, 8, 0, 0, 1, 3\n0, 1, 4, 0, 0, 0]"] ;
580 -> 604 ;
605 [label="X[0] <= 40410.0\ngini = 0.851\nsamples = 17\nvalue = [0, 1, 1, 0, 0, 1, 1, 0, 1, 4, 0, 0, 1, 2\n0, 1, 4, 0, 0, 0]"] ;
604 -> 605 ;
606 [label="X[0] <= 38076.0\ngini = 0.777\nsamples = 11\nvalue = [0, 0, 1, 0, 0, 0, 1, 0, 0, 4, 0, 0, 0, 2\n0, 1, 2, 0, 0, 0]"] ;
605 -> 606 ;
607 [label="X[1] <= 4.5\ngini = 0.667\nsamples = 3\nvalue = [0, 0, 1, 0, 0, 0, 0, 0, 0, 0, 0, 0, 0, 0\n0, 1, 1, 0, 0, 0]"] ;
606 -> 607 ;
608 [label="gini = 0.0\nsamples = 1\nvalue = [0, 0, 0, 0, 0, 0, 0, 0, 0, 0, 0, 0, 0, 0\n0, 1, 0, 0, 0, 0]"] ;
607 -> 608 ;
609 [label="X[2824] <= 0.5\ngini = 0.5\nsamples = 2\nvalue = [0, 0, 1, 0, 0, 0, 0, 0, 0, 0, 0, 0, 0, 0\n0, 0, 1, 0, 0, 0]"] ;
607 -> 609 ;
610 [label="gini = 0.0\nsamples = 1\nvalue = [0, 0, 1, 0, 0, 0, 0, 0, 0, 0, 0, 0, 0, 0\n0, 0, 0, 0, 0, 0]"] ;
609 -> 610 ;
611 [label="gini = 0.0\nsamples = 1\nvalue = [0, 0, 0, 0, 0, 0, 0, 0, 0, 0, 0, 0, 0, 0\n0, 0, 1, 0, 0, 0]"] ;
609 -> 611 ;
612 [label="X[741] <= 0.5\ngini = 0.656\nsamples = 8\nvalue = [0, 0, 0, 0, 0, 0, 1, 0, 0, 4, 0, 0, 0, 2\n0, 0, 1, 0, 0, 0]"] ;
606 -> 612 ;
613 [label="X[4048] <= 0.5\ngini = 0.571\nsamples = 7\nvalue = [0, 0, 0, 0, 0, 0, 0, 0, 0, 4, 0, 0, 0, 2\n0, 0, 1, 0, 0, 0]"] ;
612 -> 613 ;
614 [label="X[5080] <= 0.5\ngini = 0.32\nsamples = 5\nvalue = [0, 0, 0, 0, 0, 0, 0, 0, 0, 4, 0, 0, 0, 1\n0, 0, 0, 0, 0, 0]"] ;
613 -> 614 ;
615 [label="gini = 0.0\nsamples = 4\nvalue = [0, 0, 0, 0, 0, 0, 0, 0, 0, 4, 0, 0, 0, 0\n0, 0, 0, 0, 0, 0]"] ;
614 -> 615 ;
616 [label="gini = 0.0\nsamples = 1\nvalue = [0, 0, 0, 0, 0, 0, 0, 0, 0, 0, 0, 0, 0, 1\n0, 0, 0, 0, 0, 0]"] ;
614 -> 616 ;
617 [label="X[1] <= 4.5\ngini = 0.5\nsamples = 2\nvalue = [0, 0, 0, 0, 0, 0, 0, 0, 0, 0, 0, 0, 0, 1\n0, 0, 1, 0, 0, 0]"] ;
613 -> 617 ;
618 [label="gini = 0.0\nsamples = 1\nvalue = [0, 0, 0, 0, 0, 0, 0, 0, 0, 0, 0, 0, 0, 1\n0, 0, 0, 0, 0, 0]"] ;
617 -> 618 ;
619 [label="gini = 0.0\nsamples = 1\nvalue = [0, 0, 0, 0, 0, 0, 0, 0, 0, 0, 0, 0, 0, 0\n0, 0, 1, 0, 0, 0]"] ;
617 -> 619 ;
620 [label="gini = 0.0\nsamples = 1\nvalue = [0, 0, 0, 0, 0, 0, 1, 0, 0, 0, 0, 0, 0, 0\n0, 0, 0, 0, 0, 0]"] ;
612 -> 620 ;
621 [label="X[173] <= 0.5\ngini = 0.778\nsamples = 6\nvalue = [0, 1, 0, 0, 0, 1, 0, 0, 1, 0, 0, 0, 1, 0\n0, 0, 2, 0, 0, 0]"] ;
605 -> 621 ;
622 [label="X[1187] <= 0.5\ngini = 0.72\nsamples = 5\nvalue = [0, 1, 0, 0, 0, 1, 0, 0, 0, 0, 0, 0, 1, 0\n0, 0, 2, 0, 0, 0]"] ;
621 -> 622 ;
623 [label="X[421] <= 0.5\ngini = 0.625\nsamples = 4\nvalue = [0, 0, 0, 0, 0, 1, 0, 0, 0, 0, 0, 0, 1, 0\n0, 0, 2, 0, 0, 0]"] ;
622 -> 623 ;
624 [label="X[3244] <= 0.5\ngini = 0.444\nsamples = 3\nvalue = [0, 0, 0, 0, 0, 1, 0, 0, 0, 0, 0, 0, 0, 0\n0, 0, 2, 0, 0, 0]"] ;
623 -> 624 ;
625 [label="gini = 0.0\nsamples = 2\nvalue = [0, 0, 0, 0, 0, 0, 0, 0, 0, 0, 0, 0, 0, 0\n0, 0, 2, 0, 0, 0]"] ;
624 -> 625 ;
626 [label="gini = 0.0\nsamples = 1\nvalue = [0, 0, 0, 0, 0, 1, 0, 0, 0, 0, 0, 0, 0, 0\n0, 0, 0, 0, 0, 0]"] ;
624 -> 626 ;
627 [label="gini = 0.0\nsamples = 1\nvalue = [0, 0, 0, 0, 0, 0, 0, 0, 0, 0, 0, 0, 1, 0\n0, 0, 0, 0, 0, 0]"] ;
623 -> 627 ;
628 [label="gini = 0.0\nsamples = 1\nvalue = [0, 1, 0, 0, 0, 0, 0, 0, 0, 0, 0, 0, 0, 0\n0, 0, 0, 0, 0, 0]"] ;
622 -> 628 ;
629 [label="gini = 0.0\nsamples = 1\nvalue = [0, 0, 0, 0, 0, 0, 0, 0, 1, 0, 0, 0, 0, 0\n0, 0, 0, 0, 0, 0]"] ;
621 -> 629 ;
630 [label="X[4274] <= 0.5\ngini = 0.32\nsamples = 5\nvalue = [0, 0, 0, 0, 0, 0, 0, 0, 0, 4, 0, 0, 0, 1\n0, 0, 0, 0, 0, 0]"] ;
604 -> 630 ;
631 [label="gini = 0.0\nsamples = 4\nvalue = [0, 0, 0, 0, 0, 0, 0, 0, 0, 4, 0, 0, 0, 0\n0, 0, 0, 0, 0, 0]"] ;
630 -> 631 ;
632 [label="gini = 0.0\nsamples = 1\nvalue = [0, 0, 0, 0, 0, 0, 0, 0, 0, 0, 0, 0, 0, 1\n0, 0, 0, 0, 0, 0]"] ;
630 -> 632 ;
633 [label="X[375] <= 0.5\ngini = 0.444\nsamples = 3\nvalue = [0, 0, 0, 0, 0, 2, 0, 0, 0, 0, 0, 0, 0, 1\n0, 0, 0, 0, 0, 0]"] ;
579 -> 633 ;
634 [label="gini = 0.0\nsamples = 2\nvalue = [0, 0, 0, 0, 0, 2, 0, 0, 0, 0, 0, 0, 0, 0\n0, 0, 0, 0, 0, 0]"] ;
633 -> 634 ;
635 [label="gini = 0.0\nsamples = 1\nvalue = [0, 0, 0, 0, 0, 0, 0, 0, 0, 0, 0, 0, 0, 1\n0, 0, 0, 0, 0, 0]"] ;
633 -> 635 ;
636 [label="X[1] <= 4.5\ngini = 0.444\nsamples = 3\nvalue = [0, 0, 1, 2, 0, 0, 0, 0, 0, 0, 0, 0, 0, 0\n0, 0, 0, 0, 0, 0]"] ;
578 -> 636 ;
637 [label="gini = 0.0\nsamples = 1\nvalue = [0, 0, 1, 0, 0, 0, 0, 0, 0, 0, 0, 0, 0, 0\n0, 0, 0, 0, 0, 0]"] ;
636 -> 637 ;
638 [label="gini = 0.0\nsamples = 2\nvalue = [0, 0, 0, 2, 0, 0, 0, 0, 0, 0, 0, 0, 0, 0\n0, 0, 0, 0, 0, 0]"] ;
636 -> 638 ;
639 [label="X[3338] <= 0.5\ngini = 0.667\nsamples = 3\nvalue = [0, 0, 0, 0, 0, 0, 1, 0, 0, 0, 0, 0, 0, 0\n1, 0, 0, 1, 0, 0]"] ;
451 -> 639 ;
640 [label="X[5176] <= 0.5\ngini = 0.5\nsamples = 2\nvalue = [0, 0, 0, 0, 0, 0, 1, 0, 0, 0, 0, 0, 0, 0\n0, 0, 0, 1, 0, 0]"] ;
639 -> 640 ;
641 [label="gini = 0.0\nsamples = 1\nvalue = [0, 0, 0, 0, 0, 0, 1, 0, 0, 0, 0, 0, 0, 0\n0, 0, 0, 0, 0, 0]"] ;
640 -> 641 ;
642 [label="gini = 0.0\nsamples = 1\nvalue = [0, 0, 0, 0, 0, 0, 0, 0, 0, 0, 0, 0, 0, 0\n0, 0, 0, 1, 0, 0]"] ;
640 -> 642 ;
643 [label="gini = 0.0\nsamples = 1\nvalue = [0, 0, 0, 0, 0, 0, 0, 0, 0, 0, 0, 0, 0, 0\n1, 0, 0, 0, 0, 0]"] ;
639 -> 643 ;
644 [label="X[2789] <= 0.5\ngini = 0.667\nsamples = 3\nvalue = [0, 0, 0, 0, 0, 0, 0, 0, 0, 0, 1, 1, 0, 0\n0, 0, 0, 0, 1, 0]"] ;
450 -> 644 ;
645 [label="X[6064] <= 0.5\ngini = 0.5\nsamples = 2\nvalue = [0, 0, 0, 0, 0, 0, 0, 0, 0, 0, 1, 0, 0, 0\n0, 0, 0, 0, 1, 0]"] ;
644 -> 645 ;
646 [label="gini = 0.0\nsamples = 1\nvalue = [0, 0, 0, 0, 0, 0, 0, 0, 0, 0, 0, 0, 0, 0\n0, 0, 0, 0, 1, 0]"] ;
645 -> 646 ;
647 [label="gini = 0.0\nsamples = 1\nvalue = [0, 0, 0, 0, 0, 0, 0, 0, 0, 0, 1, 0, 0, 0\n0, 0, 0, 0, 0, 0]"] ;
645 -> 647 ;
648 [label="gini = 0.0\nsamples = 1\nvalue = [0, 0, 0, 0, 0, 0, 0, 0, 0, 0, 0, 1, 0, 0\n0, 0, 0, 0, 0, 0]"] ;
644 -> 648 ;
649 [label="X[1857] <= 0.5\ngini = 0.444\nsamples = 3\nvalue = [0, 0, 0, 0, 0, 0, 0, 0, 0, 0, 0, 0, 0, 0\n1, 0, 2, 0, 0, 0]"] ;
449 -> 649 ;
650 [label="gini = 0.0\nsamples = 2\nvalue = [0, 0, 0, 0, 0, 0, 0, 0, 0, 0, 0, 0, 0, 0\n0, 0, 2, 0, 0, 0]"] ;
649 -> 650 ;
651 [label="gini = 0.0\nsamples = 1\nvalue = [0, 0, 0, 0, 0, 0, 0, 0, 0, 0, 0, 0, 0, 0\n1, 0, 0, 0, 0, 0]"] ;
649 -> 651 ;
652 [label="X[488] <= 0.5\ngini = 0.869\nsamples = 53\nvalue = [1, 4, 2, 2, 3, 10, 0, 1, 0, 13, 0, 0, 2, 4\n1, 1, 6, 1, 0, 2]"] ;
448 -> 652 ;
653 [label="X[5080] <= 0.5\ngini = 0.859\nsamples = 50\nvalue = [1, 4, 2, 2, 1, 10, 0, 1, 0, 13, 0, 0, 2, 3\n1, 1, 6, 1, 0, 2]"] ;
652 -> 653 ;
654 [label="X[0] <= 10931.5\ngini = 0.825\nsamples = 42\nvalue = [0, 4, 2, 1, 1, 9, 0, 1, 0, 13, 0, 0, 2, 2\n0, 1, 5, 1, 0, 0]"] ;
653 -> 654 ;
655 [label="X[4753] <= 0.5\ngini = 0.76\nsamples = 11\nvalue = [0, 1, 0, 1, 0, 1, 0, 1, 0, 3, 0, 0, 0, 0\n0, 0, 4, 0, 0, 0]"] ;
654 -> 655 ;
656 [label="X[5634] <= 0.5\ngini = 0.72\nsamples = 10\nvalue = [0, 0, 0, 1, 0, 1, 0, 1, 0, 3, 0, 0, 0, 0\n0, 0, 4, 0, 0, 0]"] ;
655 -> 656 ;
657 [label="X[1070] <= 0.5\ngini = 0.667\nsamples = 9\nvalue = [0, 0, 0, 0, 0, 1, 0, 1, 0, 3, 0, 0, 0, 0\n0, 0, 4, 0, 0, 0]"] ;
656 -> 657 ;
658 [label="X[279] <= 0.5\ngini = 0.594\nsamples = 8\nvalue = [0, 0, 0, 0, 0, 0, 0, 1, 0, 3, 0, 0, 0, 0\n0, 0, 4, 0, 0, 0]"] ;
657 -> 658 ;
659 [label="X[0] <= 9428.0\ngini = 0.49\nsamples = 7\nvalue = [0, 0, 0, 0, 0, 0, 0, 0, 0, 3, 0, 0, 0, 0\n0, 0, 4, 0, 0, 0]"] ;
658 -> 659 ;
660 [label="X[3982] <= 0.5\ngini = 0.48\nsamples = 5\nvalue = [0, 0, 0, 0, 0, 0, 0, 0, 0, 3, 0, 0, 0, 0\n0, 0, 2, 0, 0, 0]"] ;
659 -> 660 ;
661 [label="X[441] <= 0.5\ngini = 0.375\nsamples = 4\nvalue = [0, 0, 0, 0, 0, 0, 0, 0, 0, 3, 0, 0, 0, 0\n0, 0, 1, 0, 0, 0]"] ;
660 -> 661 ;
662 [label="gini = 0.0\nsamples = 3\nvalue = [0, 0, 0, 0, 0, 0, 0, 0, 0, 3, 0, 0, 0, 0\n0, 0, 0, 0, 0, 0]"] ;
661 -> 662 ;
663 [label="gini = 0.0\nsamples = 1\nvalue = [0, 0, 0, 0, 0, 0, 0, 0, 0, 0, 0, 0, 0, 0\n0, 0, 1, 0, 0, 0]"] ;
661 -> 663 ;
664 [label="gini = 0.0\nsamples = 1\nvalue = [0, 0, 0, 0, 0, 0, 0, 0, 0, 0, 0, 0, 0, 0\n0, 0, 1, 0, 0, 0]"] ;
660 -> 664 ;
665 [label="gini = 0.0\nsamples = 2\nvalue = [0, 0, 0, 0, 0, 0, 0, 0, 0, 0, 0, 0, 0, 0\n0, 0, 2, 0, 0, 0]"] ;
659 -> 665 ;
666 [label="gini = 0.0\nsamples = 1\nvalue = [0, 0, 0, 0, 0, 0, 0, 1, 0, 0, 0, 0, 0, 0\n0, 0, 0, 0, 0, 0]"] ;
658 -> 666 ;
667 [label="gini = 0.0\nsamples = 1\nvalue = [0, 0, 0, 0, 0, 1, 0, 0, 0, 0, 0, 0, 0, 0\n0, 0, 0, 0, 0, 0]"] ;
657 -> 667 ;
668 [label="gini = 0.0\nsamples = 1\nvalue = [0, 0, 0, 1, 0, 0, 0, 0, 0, 0, 0, 0, 0, 0\n0, 0, 0, 0, 0, 0]"] ;
656 -> 668 ;
669 [label="gini = 0.0\nsamples = 1\nvalue = [0, 1, 0, 0, 0, 0, 0, 0, 0, 0, 0, 0, 0, 0\n0, 0, 0, 0, 0, 0]"] ;
655 -> 669 ;
670 [label="X[1849] <= 0.5\ngini = 0.803\nsamples = 31\nvalue = [0, 3, 2, 0, 1, 8, 0, 0, 0, 10, 0, 0, 2, 2\n0, 1, 1, 1, 0, 0]"] ;
654 -> 670 ;
671 [label="X[1604] <= 0.5\ngini = 0.824\nsamples = 28\nvalue = [0, 3, 2, 0, 1, 8, 0, 0, 0, 7, 0, 0, 2, 2\n0, 1, 1, 1, 0, 0]"] ;
670 -> 671 ;
672 [label="X[642] <= 0.5\ngini = 0.831\nsamples = 26\nvalue = [0, 3, 2, 0, 1, 8, 0, 0, 0, 5, 0, 0, 2, 2\n0, 1, 1, 1, 0, 0]"] ;
671 -> 672 ;
673 [label="X[5319] <= 0.5\ngini = 0.851\nsamples = 24\nvalue = [0, 3, 2, 0, 1, 6, 0, 0, 0, 5, 0, 0, 2, 2\n0, 1, 1, 1, 0, 0]"] ;
672 -> 673 ;
674 [label="X[1999] <= 0.5\ngini = 0.839\nsamples = 23\nvalue = [0, 3, 2, 0, 0, 6, 0, 0, 0, 5, 0, 0, 2, 2\n0, 1, 1, 1, 0, 0]"] ;
673 -> 674 ;
675 [label="X[582] <= 0.5\ngini = 0.826\nsamples = 22\nvalue = [0, 3, 2, 0, 0, 6, 0, 0, 0, 5, 0, 0, 2, 2\n0, 1, 0, 1, 0, 0]"] ;
674 -> 675 ;
676 [label="X[5597] <= 0.5\ngini = 0.812\nsamples = 21\nvalue = [0, 3, 2, 0, 0, 6, 0, 0, 0, 5, 0, 0, 2, 2\n0, 0, 0, 1, 0, 0]"] ;
675 -> 676 ;
677 [label="X[3986] <= 0.5\ngini = 0.795\nsamples = 20\nvalue = [0, 3, 2, 0, 0, 6, 0, 0, 0, 5, 0, 0, 2, 2\n0, 0, 0, 0, 0, 0]"] ;
676 -> 677 ;
678 [label="X[0] <= 37757.0\ngini = 0.781\nsamples = 19\nvalue = [0, 3, 2, 0, 0, 6, 0, 0, 0, 5, 0, 0, 2, 1\n0, 0, 0, 0, 0, 0]"] ;
677 -> 678 ;
679 [label="X[0] <= 31588.5\ngini = 0.796\nsamples = 17\nvalue = [0, 3, 2, 0, 0, 4, 0, 0, 0, 5, 0, 0, 2, 1\n0, 0, 0, 0, 0, 0]"] ;
678 -> 679 ;
680 [label="X[4432] <= 0.5\ngini = 0.769\nsamples = 13\nvalue = [0, 3, 2, 0, 0, 4, 0, 0, 0, 3, 0, 0, 0, 1\n0, 0, 0, 0, 0, 0]"] ;
679 -> 680 ;
681 [label="X[118] <= 0.5\ngini = 0.736\nsamples = 12\nvalue = [0, 3, 2, 0, 0, 4, 0, 0, 0, 3, 0, 0, 0, 0\n0, 0, 0, 0, 0, 0]"] ;
680 -> 681 ;
682 [label="X[4631] <= 0.5\ngini = 0.711\nsamples = 11\nvalue = [0, 3, 1, 0, 0, 4, 0, 0, 0, 3, 0, 0, 0, 0\n0, 0, 0, 0, 0, 0]"] ;
681 -> 682 ;
683 [label="X[0] <= 22170.0\ngini = 0.66\nsamples = 10\nvalue = [0, 3, 0, 0, 0, 4, 0, 0, 0, 3, 0, 0, 0, 0\n0, 0, 0, 0, 0, 0]"] ;
682 -> 683 ;
684 [label="X[3784] <= 0.5\ngini = 0.612\nsamples = 7\nvalue = [0, 1, 0, 0, 0, 3, 0, 0, 0, 3, 0, 0, 0, 0\n0, 0, 0, 0, 0, 0]"] ;
683 -> 684 ;
685 [label="X[413] <= 0.5\ngini = 0.5\nsamples = 6\nvalue = [0, 0, 0, 0, 0, 3, 0, 0, 0, 3, 0, 0, 0, 0\n0, 0, 0, 0, 0, 0]"] ;
684 -> 685 ;
686 [label="X[0] <= 15285.5\ngini = 0.48\nsamples = 5\nvalue = [0, 0, 0, 0, 0, 3, 0, 0, 0, 2, 0, 0, 0, 0\n0, 0, 0, 0, 0, 0]"] ;
685 -> 686 ;
687 [label="gini = 0.0\nsamples = 1\nvalue = [0, 0, 0, 0, 0, 0, 0, 0, 0, 1, 0, 0, 0, 0\n0, 0, 0, 0, 0, 0]"] ;
686 -> 687 ;
688 [label="X[6000] <= 0.5\ngini = 0.375\nsamples = 4\nvalue = [0, 0, 0, 0, 0, 3, 0, 0, 0, 1, 0, 0, 0, 0\n0, 0, 0, 0, 0, 0]"] ;
686 -> 688 ;
689 [label="gini = 0.0\nsamples = 3\nvalue = [0, 0, 0, 0, 0, 3, 0, 0, 0, 0, 0, 0, 0, 0\n0, 0, 0, 0, 0, 0]"] ;
688 -> 689 ;
690 [label="gini = 0.0\nsamples = 1\nvalue = [0, 0, 0, 0, 0, 0, 0, 0, 0, 1, 0, 0, 0, 0\n0, 0, 0, 0, 0, 0]"] ;
688 -> 690 ;
691 [label="gini = 0.0\nsamples = 1\nvalue = [0, 0, 0, 0, 0, 0, 0, 0, 0, 1, 0, 0, 0, 0\n0, 0, 0, 0, 0, 0]"] ;
685 -> 691 ;
692 [label="gini = 0.0\nsamples = 1\nvalue = [0, 1, 0, 0, 0, 0, 0, 0, 0, 0, 0, 0, 0, 0\n0, 0, 0, 0, 0, 0]"] ;
684 -> 692 ;
